0,1,2,3,4,5,6,7,8,9,10,11,12,13,14,15,16,17,18,19,20,21,22,23,24,25,26,27,28,29,30,31,32,33,34,35,36,37,38,39,40,41,42,43,44,45,46,47,48,49,50,51,52,53,54,55,56,57,58,59,60,61,62,63,64,65,66,67,68,69,70,71,72,73,74,75,76,77,78,79,80,81,82,83,84,85,86,87,88,89,90,91,92,93,94,95,96,97,98,99,100,101,102,103,104,105,106,107,108,109,110,111,112,113,114,115,116,117,118,119,120,121,122,123,124,125,126,127,128,129,130,131,132,133,134,135,136,137,138,139,140,141,142,143,144,145,146,147,148,149,150,151,152,153,154,155,156,157,158,159,160,161,162,163,164,165,166,167,168,169,170,171,172,173,174,175,176,177,178,179,180,181,182,183,184,185,186,187,188,189,190,191,192,193,194,195,196,197,198,199,200,201,202,203,204,205,206,207,208,209,210,211,212,213,214,215,216,217,218,219,220,221,222,223,224,225,226,227,228,229,230,231,232,233,234,235,236,237,238,239,240,241,242,243,244,245,246,247,248,249,250,251,252,253,254,255,256,257,258,259,260,261,262,263,264,265,266,267,268,269,270,271,272,273,274,275,276,277,278,279,280,281,282,283,284,285,286,287,288,289,290,291,292,293,294,295,296,297,298,299,300,301,302,303,304,305,306,307,308,309,310,311,312,313,314,315,316,317,318,319,320,321,322,323,324,325,326,327,328,329,330,331,332,333,334,335,336,337,338,339,340,341,342,343,344,345,346,347,348,349,350,351,352,353,354,355,356,357,358,359,360,361,362,363,364,365,366,367,368,369,370,371,372,373,374,375,376,377,378,379,380,381,382,383,384,385,386,387,388,389,390,391,392,393,394,395,396,397,398,399,400,401,402,403,404,405,406,407,408,409,410,411,412,413,414,415,416,417,418,419,420,421,422,423,424,425,426,427,428,429,430,431,432,433,434,435,436,437,438,439,440,441,442,443,444,445,446,447,448,449,450,451,452,453,454,455,456,457,458,459,460,461,462,463,464,465,466,467,468,469,470,471,472,473,474,475,476,477,478,479,480,481,482,483,484,485,486,487,488,489,490,491,492,493,494,495,496,497,498,499,500,501,502,503,504,505,506,507,508,509,510,511
-3.2813116746859385e-05,-0.24579722206242896,-0.27531885489973984,0.3103060423893169,0.029407183418512724,1.2554566030820458,0.42047684485699277,0.08171387993363029,0.32648144006560126,0.3734411862035379,-0.9652112651007957,-1.686593311834334,0.29556376019047753,-1.1763103697324355,-0.2638894166984223,-0.16963594499275325,0.5322170957198445,-0.007390609141947956,1.1107400218065153,0.9656584317950053,-0.18224438403127985,0.1343768557837473,0.61060791587778,0.12179365437336864,-1.6041550311760258,0.07507386370439395,1.4157443213264767,-0.8837078001235136,0.18807392824942729,-2.2592783231342644,0.511885095571511,-1.5438346781602976,1.3686459408389005,0.8446070873976871,-0.6983992425533586,0.7182038887223667,-1.9603370167885137,-0.2392359000502201,-0.9150343969290733,0.9620992853289038,1.0809825294965623,0.6732155001517549,-0.6726997717477893,1.2551100658756402,-2.3058967378974327,-0.056882957393910624,-0.36775140153469105,0.1761962655613845,-1.067424496256441,2.6166258127518187,0.3475130682876578,-0.5009888590284922,-0.5226679173963208,-0.5634800616071831,-1.1124400690717064,-0.826031078916062,3.1589852662986035,0.22838654183559376,-1.1012298589157146,-1.427228253923119,-0.10903371994653561,0.8990857369269849,-0.2528138449424661,-0.7407896010708482,-1.6185732228435747,1.3801655459888367,1.9287443845369396,-0.5502045302857499,0.4171982529904412,0.59382749366676,0.733484925008737,1.1198022131140122,0.9170651290078929,1.1557124836534567,1.1802216077410765,-0.7480076618881749,0.5449404702563053,1.0086966848173022,1.072197851790182,-0.08617806162692579,0.7641918267906783,-1.396321965950227,0.3936446486617099,-1.3026574693772779,0.26966269255850656,0.2657846153795524,0.4857096539505829,-1.0018877669539483,0.0815337561338976,-1.1691682325577495,1.428105086037794,-1.4593911924656036,-0.024713673973047922,-1.416804634239467,0.10866218640233982,0.47208537061115535,-2.8532778037928574,1.1217361048981673,2.712406182085244,-2.0252245523817973,0.35535146087023783,-1.8734056695499006,1.2182416402722573,0.08038482714834971,-1.5486892959336416,-1.554250823087753,-0.20577102022263044,-0.40500032001692676,0.3181978966247612,-0.8402171446145442,-1.3706763889909732,0.33456980342546233,-0.13808903675443285,-0.7585659051384797,0.24625449146521447,0.5582121221141538,0.46914891396366726,2.244100791102727,-0.6427350041103447,-0.5974936787714148,-0.11722616546099877,0.8913223925141488,-1.3527028170020836,0.7928003730549746,0.4102240759648311,0.38578788905742906,-0.2547549405072798,1.4299662178844188,1.2992361089532591,-0.2993449544077018,0.3603839928345959,-0.22576142878047706,-0.2497407762961951,0.19819629703067557,0.9151516806672715,-0.887199142028262,-1.6764971623335438,1.850376811875413,-0.4065067760396477,-0.494584112322225,-0.6441370588824034,-0.6856692763484465,-0.9400011887304826,0.6907003212820445,0.7881106055477839,-0.3587630172529387,-1.5648740572488684,0.879524140977388,0.42635436715725833,0.8359877701402758,0.11752649132080038,-0.5041671746734613,-0.6937419982266655,1.9428215496345957,-0.6899240203216742,0.8321333680417886,1.3068841623589469,-2.395200090948062,0.9322552116310097,-1.33497653039636,-0.39337358455076105,0.6633647050275493,0.004242336564137285,-1.2754686080729993,-1.1726357821703524,-0.27669386941689633,-0.6306520209051769,-0.22277811411125417,1.3080744705526235,1.863496071922695,-0.6863313016384398,1.5256491865546535,-0.7909852294175052,-0.5252972562047646,0.45640172473679674,0.1464223557301482,0.5686501086495983,-0.644924496532044,-0.03888551712978277,0.26325014771771715,-0.10297630359296306,-0.5649307163808327,-1.2880473600038136,-0.8838601642835004,-1.0459254690963797,-1.1116628843540175,0.21384020437588705,0.8870296443259478,-0.23204516017275528,0.2275201108198195,-2.3451881668122967,0.1135238560525494,0.5051740428344779,-0.46123220637226253,-2.5694433238767793,0.3879650617335493,-0.8900835407721432,1.0414697082033058,0.9610360522543913,0.04346288360659888,-0.8520624532223784,0.7813230260509603,0.3266165289376619,0.6541167688859154,-0.01313118863412532,0.11295929209099206,-1.4547981564647923,-0.1354036696024928,-0.8171254511285995,1.0037585703001728,0.3412259590053292,-0.4023235843815348,0.8813255257515932,1.7779710627687202,-0.40186982956772244,1.5427111725519316,0.19969138809568007,0.3223753555029611,-1.2898384859497822,0.9324784198904648,-0.24841582893903286,-0.743865723324117,0.543597283988651,0.18809623823149432,0.3200095141232715,1.6237468371228743,0.2566845881937938,-0.42630470661134073,-1.346645567291002,0.22423107045884766,0.87931536184335,-0.2706981565871921,-1.4238058582345483,1.124724367865245,0.45021841723155753,0.4898810405895226,-1.7686238377671724,-0.024905791628453633,-1.097260837641208,-0.8072147328682991,0.10023660901302836,-0.007396973379073106,1.1075833770210741,-0.43101968157740556,-2.181914568241107,-2.1657696452918156,-0.6550654198618321,0.08675183449825022,-1.2554495740826308,1.2050700239307628,0.6586915831771473,0.279122848882938,1.5653441276918167,0.04367146778281818,0.2873647448524933,0.13642240826890045,0.02456405225641331,-0.048939873078118,-0.45009594012763443,0.5388238148207977,1.6102576510996551,-0.6243565639066614,0.2504371930141143,0.34505602761639637,1.4787190826792993,-1.0473505686974895,0.11026151516224553,-0.7878232480123725,-0.04599985404401975,-1.2221936812551,0.012627564262715722,-0.6299929660156117,-1.052820672093478,-0.711619367966566,0.8870950659415457,-1.6937013395666676,0.2500558022002495,-0.1959444863627937,-0.32770512684100006,1.0936591096927588,-1.0625955650287473,1.4269340651684344,-1.318030376892274,0.2017546808239769,0.5011592218272384,0.022274720162659734,1.0705788291600844,0.12682270696246273,0.7113782913778602,1.1720168472649608,-0.3566312400318045,-1.2546566613432364,0.03188724845694041,-0.33456283694171235,-0.1602337591057373,2.112286230604841,-0.025000169991721322,-0.639601257448103,2.383660588946958,-0.3785608266656596,-1.0389037106329062,0.8337570710346178,0.03653538598765152,0.3888375255621285,0.5711070967102314,0.21661980983279,-0.04872719680251129,0.5633380213271101,0.1307537961235912,0.45623429125047615,0.6121869534872231,-1.3603192613405157,0.19543061038245335,-0.7219815588808417,0.8746614831331514,-1.6086458313461922,1.5150736582688433,-1.3146014970335214,-0.7672312710452674,-0.684667951079989,-0.28175103774910415,-0.38588926872215273,-0.239336200095528,0.5365552090902445,1.2043908638768186,-0.9078505874510385,1.4286325710144931,1.3116809461372088,-1.8290305315248312,0.3367170840602304,0.6570323948321687,-0.32962383836300857,0.5143499422558155,0.8962274380540229,0.6929660610872138,0.03370673987524496,-0.3830345874581908,-0.4369638509784779,0.7598529963784578,-1.2298352338559133,1.193093407706008,-0.7363889082054079,0.3654566095184701,-1.2379445591305624,1.1573033751443473,-0.3294910151688436,-0.776817203385824,-0.5813779492518064,0.5797468180705934,0.6604141562524537,-2.5608357463780957,0.9319061376090474,2.2789923835595816,-1.9250497381907707,-0.636952923620302,0.6913188630215633,-0.9069023041515621,1.2653106170684978,-0.19715520773157105,2.7575786633831507,-1.53022378444308,0.6485641081672546,-0.8820519473597154,-0.4641634605972317,-0.07985084741184295,-0.36214386320317615,0.6825902585670991,-0.7585809298105575,-0.3961711051834391,-0.8066088897650004,0.5087296367293073,2.1307270716824265,-0.16541054455932272,0.42283539091738637,-0.9650132423735847,-0.13080211183392512,-1.5472647849732806,1.5581662442116095,1.464768295134615,0.6380361786089775,-0.057887778018323045,0.9417232943375886,-0.22148763798978713,1.233034096903685,0.10398246491220525,0.5617308402084007,1.3553091030144289,-0.8848351667338976,1.904675582983,1.2271210394342986,1.1490848749253355,0.7435226569147426,0.2992999374460769,0.39306189612399794,0.17886952505241877,2.1191869065262408,-0.040658745104466806,-0.7506973041667638,0.9858318267753945,0.24479532420526023,-0.38847868751498404,-0.19797905559323395,-3.43945331755958,0.6342745588099955,-0.8832375573180348,0.7755899373883572,-0.04132135526615825,-0.22305843482475576,-1.4770045214939498,0.3868121712368402,-0.8060462711628419,0.8449188932444486,0.9024494021962679,0.2056163361475861,-0.83930625195522,-0.22065797861015662,0.8679591654937602,0.11053662394908345,0.24033111842673655,0.01984928181114392,-0.6837727371649117,0.7107392067410861,-0.1285027362875457,-0.034113776683445465,-1.971426599092554,-0.852513370198079,0.5905037975541371,-0.26129052169475125,0.8134487979571869,-1.3616342839986628,-1.6046522774300336,1.6396793405410062,-2.8453671696256193,0.09560031581460661,0.7570362143953938,1.1963077531550697,-2.0846939739847694,-0.0543360221615088,-0.35953215293499263,-0.17803991445785441,-0.5031029280597327,-0.4464966051993126,0.38881253987506886,1.7161347168902241,-0.16939104638742075,0.6807257276941384,0.7853189808158177,0.8882720139972095,-1.5258849397948684,-0.47955440739531824,1.051959881815529,2.0476445314392455,-0.7751277368831497,0.2577153712635182,0.4227794635775942,-0.3764843398244661,0.9197403481024775,1.6563953543650443,-0.27649678771027897,0.11526481373141777,0.6364787352799179,-0.5031090252518159,0.3481950383730472,0.07181398829875696,0.6291211925330759,0.222339420944274,0.9867411012858934,1.2440083259929515,-0.7515890886932739,0.4063176785041516,-2.1003735852674237,-1.4842251710889545,-0.7089466460228195,-1.574963269896397,-0.041128216364423514,-1.3715195934381221,0.7212701932030438,1.975880811364412,0.09485010410151759,0.24937016532803882,1.747372689964749,-0.24727630329598818,0.41629130164125433,-0.7102468101173267,-0.31446618374531893,-0.8526783637327189,-0.6619549810486319,1.287780387422462,-0.8617317056009818,-0.09649856576748143,-0.19543294066191202,1.3434156255150538,-1.8617632394183776,-0.08212800663941489,-2.374910945158346,-1.5497198310752045,0.42676814282240066,-0.7105154497952333,-0.17463409922946732,-0.8423416987425645,-2.0622965959557287,1.2797046529892129,-1.0158013519341353,-0.055132636542218075,0.11667681455493968,1.974526056113334,2.2609460155750862,1.2636844914532712,-0.5337640636416219,0.7266699494123781,-0.7063629584992331,1.7657671473593721
0.6401079821045198,-0.19908330952340114,-0.9552917276918882,0.044512412257159094,0.10516583493705692,0.5902925687628878,0.22157969839621042,-0.7976089715030693,-2.1642327003134976,0.624367024762066,1.3803894660148648,-0.3229837505676294,0.3766838046384278,1.083953918139359,0.8238394494507696,0.20244219960505722,-1.5917109457486136,-0.4683616240851677,0.39703864915289566,0.06619003599047199,-0.7794898515500621,-0.6305056727187722,-0.8505085770172196,-1.458174293485217,0.19503912230475984,-0.7883609699602431,0.1479799003936532,-0.8131458498928117,-0.38304302199469614,-0.03626453064172625,1.0834926360938606,-1.0742751459935849,1.7824378442446434,-0.9389714791803471,-0.5232899386239025,1.2238457538061178,-0.5352013818589809,-0.6246186348209798,-1.6656543166595554,-0.2640723725819566,0.9506839099115008,0.5054620704892849,1.2010393868179747,-0.44089171308106195,-2.05060932731871,0.4146856121550036,-0.6802305381896567,0.07440448347870897,1.6287615702645422,1.1450849277171127,0.1470985793572512,0.5967482091299967,-0.692343780366565,-0.6581788809576401,0.42271474502947387,0.07113639968165586,0.08648202021590808,1.1004228914965684,0.07540794033884272,0.10533261469734052,1.2867485373300458,1.5698672038960324,-0.48327288326316775,0.8282096337686091,-1.9715612198181562,-1.1266519411066647,-0.23954974946640833,-0.2539451862110028,1.985811483937711,1.0427579390851038,-0.04054237705371692,-1.4270167250459036,-2.000632550189037,0.25202604850503096,-1.1811079485488831,0.40423037981585874,-0.06902218885310596,0.8653174928993949,-0.472049370809232,-0.018212892766739097,-0.5758312978002651,0.8561395704838395,0.9960285013978936,-0.6533159223740652,1.1233565658924975,-1.2220484644117078,-1.2176510518116304,-1.355847855766066,0.8733413758074422,-0.5404590751186007,0.3120172706269053,0.011833777789012484,-0.8508764691951737,-2.7613414149305715,1.3338308316120988,-0.8253627394256788,-0.9475145602079816,0.1532063663168847,-0.4052816188249477,-0.7304196705446008,0.7644621546560919,-1.0805624639330877,-0.17301493210353036,-0.957778063878486,1.4258598734913055,0.4771104156290697,1.6681027923570397,-1.4268885901222756,0.1593433770651109,-1.4978501926963201,-0.9745186301827041,0.24560042601608706,-0.7170284566046924,-0.8439643816330643,0.4639754357790787,-0.9060167729646827,-1.21070647752906,0.6193087245727469,1.302235173732414,-0.4569179995380327,0.6035594082074001,1.3044051440034778,-2.0181459206252934,1.747648135578108,0.8729606178234351,0.486756895494782,-1.2782954564270779,-0.8615372985825575,-0.3952440250179111,-0.10604324109590016,-0.156474087496515,0.37417615216428124,0.48065530160780445,0.7410857530407854,0.6357651431596565,0.3150174001206471,-0.33656448328384014,0.8158447423263656,-1.4966777915076632,1.3942539956256907,0.7879210117846465,-1.7069769979964715,1.2639961846017915,-0.008363896480105102,0.5754033225046038,-0.07031524389859888,1.2094352990220443,0.9209560441075725,0.028728232469293898,-0.3669976354803117,2.079498285528761,-0.7887179707014265,0.9578955360575689,-1.8418535467050434,-0.6108628898118491,1.2210748816221824,0.10655673800636264,-1.0972487880462893,-0.4282591946960956,0.023778493533294892,-0.6845157954595328,1.5665217584465787,0.271416770142506,-0.5170529040145095,0.06610250329698193,0.26844677981892867,-1.7643662397445694,-0.5523921772232262,0.47732010020542304,1.2606329668899594,0.15009668054705239,0.3703853818260785,-1.138598113859266,-0.4838105587227066,0.5586393666872902,-0.17715524204365304,-0.5713109287789729,0.3498069624142366,0.561877421944783,-1.2784661215526985,-0.6088857475436219,0.24761043006268196,0.9753711444279988,0.9434671677007095,-1.4131120289730552,-1.897652567482142,1.2979628830581353,-2.4206537412030498,-1.2992045808747752,1.220245180991137,0.7867400842678648,0.6274019641365366,-0.20025582368227518,1.9425179111992033,0.6164796860590677,-0.5910301906401798,0.8037041288540661,-0.3718815395545925,0.6081811481620474,0.34512275172021606,-1.1272504148830391,0.4038322177081314,0.8973019314405034,-0.4490742086948815,-0.11710555433318029,0.017865788268945658,-1.1459319791572,0.3769205862274269,0.5995697978951876,1.1091192296113537,-0.4028662091879875,0.11967366667741733,0.020667728530132868,0.19135392537191015,-0.6462323985016438,-0.5942196796278851,1.3306800045179512,-0.31294163464298186,0.17852998119832553,1.655728467289939,0.2427552225370782,-0.220520415532841,-0.9882637288168044,1.0739649812053862,1.0297075704555714,0.39275065120709446,-0.2532710164248147,2.0331399388772247,-1.513555795132274,-0.5812095656262646,2.3639609453292576,-0.4883671775171509,-1.564353708905731,1.3142109900704024,-0.3888290982700225,1.4254543644755904,-2.030494084993903,-0.36439795128725416,0.15284334834812624,-0.42471770879019755,1.1165570219431913,0.47184840151297225,-0.7562008372626391,0.1272664958610743,0.6612367608453337,0.775742818526198,-0.5464801390776585,-0.551749840825513,0.011942417879516222,-0.9610556288994596,1.5103549873641624,2.3529375730526985,0.3984413739185065,0.6531353678407091,-0.5331270539135085,0.027208205271223678,-1.3870099390880328,0.3154760463027694,0.6850569761525781,-0.6435741680572511,1.5478534993396382,-0.8250120196233043,0.46846128969072137,-0.5930525834418,0.3860675792826663,-0.7597993033565411,1.439802543010678,-0.7404830529842568,-1.1505800536662827,-0.12007917028556152,0.5103772357184154,0.24993558331072727,-1.3591851395983903,0.25694824586522474,0.1164927579329317,-1.9682503404426581,0.26953539676159216,-0.5378662525673992,1.920095494545383,-1.7211271538334874,-0.07868200692755324,-0.6508584030081024,0.25358044871656094,0.06018798058217182,0.4727043139004498,1.3713468801552506,-0.16701626060694114,-1.8979876785242922,-0.9642724083874618,-1.298553449950495,0.7139928856274164,0.5434070791144964,-1.9406441909948076,0.8503543089278298,0.3547834962598532,0.10221631765355016,-0.35182845806789603,-0.06415679227021875,0.6480155052970532,-0.02142057556036536,-0.16068184899332866,1.2406026096912481,-0.23646207786283935,-0.6998206154248233,1.005354042597855,1.7137637509080306,-1.4443901043650917,0.7780306062463243,1.2373502488386983,-0.10820890448123813,1.0316689366951242,0.2077044407762232,0.7338257516084679,-0.4067197591061467,-0.16208680162253736,0.9076902518777434,0.06813474259054161,-0.5235277410404973,-0.4733637293068259,1.8112710294378038,0.2633091931616447,-0.6217018904890809,1.1372238255432994,-0.4216284286138109,-0.8146306534358542,-0.8639210236542252,-0.0918741228619921,0.5229520602954191,-1.1973417214249462,-0.03894640942484742,-0.7845331679332926,0.3834048077462918,-0.5748605997051383,0.5766781805310649,-0.30559667008631225,0.972365728480102,-0.020292352987070172,-1.73998089719532,-0.15786993369943186,0.28065778554209514,-0.6570934691951886,-1.6530029477262727,-1.8150810864175,0.2901473242355457,-1.086437498658882,0.38154293611190926,-0.008492095278986499,0.05554352473713288,-0.45705374338664356,-1.2328632696760478,-0.302869309452585,1.2197466456237975,-0.8111573112667951,-0.429325483987021,0.66668035933415,0.02284769423937816,0.04929715841331373,0.5925749185628191,-1.1370861944047455,-0.33845614144467473,-0.7121631889024098,1.1077516764777136,0.12883197113468225,-0.7455131424590079,-0.30090488495346196,-1.2491806871704958,-0.8185947356922495,-0.6079343453369795,-0.4707148032632587,0.676226118546755,-0.2262313001640303,0.3462122086164493,1.176598293088426,1.0429475872290463,-1.6915161158521372,0.39745954368402187,-1.9437758575525694,-0.7136899051771028,0.6654937147540151,0.5055726060390882,-0.03660190536071524,-1.2722232211754698,0.3293596421927555,1.060008279572459,-0.38218684796878,0.9921228112876931,-1.5224728963581318,-0.3429245892678494,0.5024610797312213,2.2773143402331195,0.3235504893422853,0.2861803444670979,1.7907792621212513,1.1439852127165906,1.4590826520473688,-0.3036117197938128,1.1517465442780541,-1.1390905666328015,-0.7760369285333286,-0.29357299143832516,1.1003584220890819,0.2770386642337936,-1.180548363271478,0.6757700772725689,0.5790076023097663,0.6322114585257846,0.753551681573014,0.5440328473292911,0.42828128907533874,1.7287469555416461,1.2356214253530886,-0.8305661714470891,-0.9251047611789979,0.4206038377398999,-0.7259441003966149,-0.3056397599208666,0.14111724659214445,-0.2993690378990705,0.14014065373381226,2.0623096729208132,-0.7599467785857326,0.5356937095895661,0.5420583272161711,0.0922792830455015,-0.48100062502339935,0.8003172122387004,0.611532698386655,-1.1409269790996552,1.5465718393306989,-1.9164529326555049,1.2823394592186252,-0.5871396589451524,0.5508043309296417,-0.6936222142993926,-0.3931081347372324,-0.07449669156994616,-0.8117436711491487,0.25194314669337925,0.7535327612799875,-1.2482011653907763,0.4966352786188637,-0.8383976150491593,-0.7628328843256745,-0.050707694891403025,1.0858479125335228,-0.6960821386076074,-0.14713995766844157,0.24829791729700557,-1.4924589858463455,1.6074058160144526,0.9365380810470282,-0.0763542726527187,0.5402502346944394,0.005232709357052416,1.3436884152763038,-0.03988157692703232,-0.2760549069553875,1.0828801715985166,-1.3707833687014908,1.5543526030606807,-0.012694649407272836,-0.6068548932706433,0.8527913796347676,-2.2478687018109365,-2.3059189371658935,-1.494212979646826,-0.3618937133285462,-0.61574584261711,0.4557883001599433,1.0130508359112422,0.7453084952036361,-0.06024195401738121,0.26513424856559054,0.47517967896139984,-0.4573518888331286,-0.26212913105457764,-0.6200446386372824,0.14769312688327096,1.515846888983522,-0.8764488138877886,0.6851916518665313,-0.12202949228434147,0.9524540310856201,1.7768440707808169,0.375473656203542,-0.37827297907871177,-0.04198715693094782,1.592582524859117,0.4472380639648154,-0.2607105997691712,-0.9817362082426371,-0.5550338875104703,-0.5058798437839016,-0.5170719022552016,-0.8545562019793074,-0.09884595622135492,0.2840149264898787,-0.18696467552221868,0.5204723716962175,0.5571418646359613,-0.24280307793898342,-0.9253440671098321,-1.1490663605283145,0.48004611045528855,-1.6949167429946848,-1.3989451389129377,-0.038308170353043215,-0.3169293804117464,-0.9022722961638685,0.3685215178170612,0.8032591690576741,-0.8126497320980289
1.0790023290558797,-0.9219904131961074,0.819464374866126,-0.6372828344991951,-1.3711953758442739,1.8801133793385414,-0.42890269463033287,0.03556140861137874,-1.5169562355166406,1.019474993247569,0.4790924050194976,-0.8811368489304581,-0.684007054570184,1.1302574930736526,1.2658587914685315,1.4238368125230396,-0.46176341005118476,2.142219236074388,-0.8744343213660342,0.6905346006773538,0.43685980172127364,-1.71636023837283,0.39533637343900024,-1.0240899217153592,-1.363238467198823,0.6917051527161461,-0.7336528413231446,2.1172375318421532,-2.2081228031671842,0.5004502521784124,1.494461996779253,-0.6101294213954496,-0.25528337900774273,1.1403199671563276,-0.3730624160300346,1.734806561317757,0.40554230632969523,2.079679649248111,0.27887283633932786,0.2656622049105733,-0.31906304947788844,1.1575648164971328,-0.5102701733389156,0.0536606213030927,-0.33776482758127985,-1.1798966384740108,0.37216221644577485,-1.0467909989445336,1.2029329556129866,1.3721422232391025,2.0110695563109284,-0.5182707010020856,-2.0790020328121313,0.42169539748293494,0.3483924038914475,-0.6639110935016322,0.10596357846161926,-0.7178517436153646,0.9207345981803193,0.5746470441869558,-1.4740320655219403,-0.9623874856593165,0.7182342320295177,1.1056461642732514,0.9098228699358456,1.3267610623804857,-0.9114556277209438,-0.8500163460670374,-0.6850602136251301,-0.4885701005738825,-0.5006639058883047,0.36685193467566535,-0.4213408150925519,-0.5601294415167896,-2.0721095164127736,-0.6521372781005442,-0.5408918899852164,1.6951443478859352,-1.7892406439985975,-0.18235854222690143,1.1020974246015798,2.9121010487027683,1.0325751093880784,2.1603335529345076,-1.1007403690707716,-1.0706354388094763,-0.6385601453435731,1.1792610951308586,1.0505809480788577,-0.6971329356926825,-0.8640574470317123,1.6406715585383145,0.968672968627684,1.6388296030749152,-0.5820956780396116,0.08343234037981022,-0.676904964433962,-1.0030960436525926,0.500733616404457,0.233197309164577,-1.1584226966434616,2.264875348567394,0.12424292690718194,0.15627413197837756,-0.42385414125526943,-0.8758099769330789,0.5613827217258422,2.2200113410457893,-0.5246922969825915,0.5428076648308922,-1.012800662203823,-0.09085897257211664,0.19299024174184562,1.2678371771476131,1.0065624249285645,-1.456088698735692,-2.005516879696988,-1.5351104243234899,0.7479731726367366,-0.2604381603417577,0.4099166088025266,-1.2311538879285027,-0.6384969530141047,0.025750572983747236,-0.26590970688708354,-1.72046228442897,0.6692328367824714,-1.0561939201235726,1.595368950213499,-0.03869133162341436,-1.3585084713015223,-0.07614315954513293,0.7080184564862005,-1.0068752069921612,-0.9141275166138428,-1.4638292857752242,0.927362361807812,0.5552917205729769,0.07152235313251411,-0.6442554737829813,-0.4691969556950313,-0.628450858741654,-0.928991428790402,-0.30889240201839074,0.6585056927776326,0.808945025754872,1.1797482075769372,-1.3116014044263642,-0.5413620709220351,0.47226973032324826,0.4894313081646375,-1.1981874107909087,-0.7586609023325063,-0.9702697568179733,-0.7917987337480109,0.8105173315564219,2.03603532106016,-0.15853819787814075,1.4140235766935219,-1.4336168032124836,1.023502319843849,0.8024142505279495,0.03708276520755796,-0.1588755424092005,1.0196106257514217,2.558745570401456,0.52479845734352,-0.8233442207592356,-0.8213736048499679,0.49871045240311035,0.15241481529923248,-1.027647190180427,0.05811460970702317,-0.7132582570078749,-0.5954667806192692,-0.8318019263339977,-1.0751270866830458,0.6828422000423839,-0.7119388463544478,0.11644279050890499,-0.03703074517251068,-1.977766036983721,0.2996206819051935,0.6161465935938214,0.46755875155106263,0.8740656365795815,-0.7673911360001695,0.29582957737696025,-0.17024828548281282,1.1076155228586735,-0.9385830019837235,-1.0989777756327326,1.1106592519097647,-0.4771478225168112,-1.3671065038883152,2.0189106664859557,2.130490779242901,2.2466502612332633,0.018007418634401397,-0.3610119490317732,0.550886750589947,0.3107881474591302,0.8866780305179096,-1.2911028068311863,0.1872906799901122,-0.28705617874208766,-1.4691310121843404,-0.48882854472317205,0.5609186145777565,-1.7253383669144318,-0.7244696850631769,1.9019244709967211,1.9859360385433928,-1.446103195664478,-0.14278549960178555,0.9344450890093052,-0.5955599257934938,1.9082287527194648,1.9918637892737288,0.689497342617548,-0.9548204786941119,2.21074891286748,-1.0321351379770158,-0.7960465444845873,-1.571437939722427,-1.0800396544878637,-0.027193878366716013,-0.048014508768801846,-0.6067795658117262,0.2754044936664834,0.8790054079897386,-0.8995195637683387,1.0704797751651132,0.5053483610841889,-0.6147564569290365,0.9294476748212451,0.5105994043881665,-0.8453064734429628,-2.4834859011694386,0.7445707845592389,0.8836499326451106,2.0966542695622286,1.2561713603199711,-1.0184827825217606,0.4637090527106678,-0.3393034906275418,-2.8560775340598257,-0.279054911086564,-0.5266419565021845,0.624171685540397,-1.4325217234062348,0.7403701053996797,-1.3656089894116779,1.6762478406808385,-0.44642288001503533,0.6519631017834946,-0.8770105377966966,-0.05007935951673939,-0.07000744985415687,0.9942299983385827,-0.1965577629583402,0.27260523766067835,0.8057114396111335,-0.1567345395706734,-0.23361207451929897,1.1535816903343428,-0.9257118345512726,-1.4989913202874408,1.1465980919625218,-0.3482473906803291,0.829420212210151,-0.742505853783206,-0.46106386242475544,1.2113329017774244,0.8058976083693837,0.2804369692096043,-0.0609571057654221,-1.3170386265038958,1.278515305842889,-0.29427538601071457,-1.3664555431913241,0.6672241895853989,-0.7278215449121647,0.32378436359238993,2.3125963284978504,0.26850883287453,0.10554324397701759,1.2956311093438142,0.8414343422150999,0.6892294775474601,-1.905252107779234,-0.15199174086140327,0.20351943772674388,0.2568462086006761,0.08037323329699939,1.0115451810192078,-0.9734443335780454,1.4267482123725501,0.7595530278750753,-1.6489999359680483,0.3234382095556483,0.35796195129816444,1.3224216123928483,1.384708228278001,0.08066865384703373,-0.8136820079122226,-0.6979176338694221,-0.051173443065918166,0.4006483571844937,1.558468667150763,0.8411268820879888,0.21104424029608457,-1.011803445297755,-0.2391247883500095,1.5587404653565455,0.4560727362132276,-0.3114624378519671,1.025929228060696,-0.3926969328687476,0.29364447729557264,0.06690313569984382,-0.1866738562663238,-0.6287639441403373,0.591655068974659,2.776984625787472,0.004759330062025473,1.283394915992551,-0.30503757225138517,1.4815248589420449,0.5024008819839202,1.1125590402985615,0.1361253351654519,-0.06274810755257437,0.7282359215678716,-0.21466056195146047,-0.8331248581715789,0.1818858685863231,-0.772600653663797,0.7747421671461502,-2.601463049591248,-0.6182358886022358,1.2408938762033195,1.107713334183211,-0.8499659988291094,0.06799846142687324,-0.7176279651770031,-0.08979600051054563,1.100156093222246,-1.223560984487797,1.103340301083277,-0.9910913589804287,0.5800044808095777,1.1324917964001986,1.3678647636268682,-0.9986656276046966,0.6109518506760163,1.9007563293725251,-0.4662148890924007,1.3363322662548083,0.5028493170122036,1.7806366825870774,1.776946627584622,-1.5436426166590838,0.8106405521218841,-0.09129349361418522,0.4983855524128607,1.11352921264818,-0.6314064865976676,1.4236129663666548,-0.6583495635769654,1.9620775543731823,-1.327855243333523,-1.171434872598519,-1.433222938595088,0.31376750083436583,-0.7791917958272214,-1.4125946639495381,-0.30128294638925723,-0.27219805888645143,-0.19136559549674437,0.16868879225361186,-0.32908553874506163,0.3099707322220284,1.6981482784456272,-0.6476526598667947,-0.8147407261914171,-0.41694444408497294,0.15968579385776377,-0.09453744596930401,-1.3636306240371154,-1.1831928576177446,-0.21882022210494387,-1.684203856925674,0.38379153941536814,-0.4371590162033516,-0.9776171439569016,-0.39890816568022863,0.7167530208631322,1.0632403246444218,1.4677864047520564,0.3309751457232908,0.36825714478850835,2.202906162998302,0.115150361329316,0.17619358165384785,-0.4540616421999803,-1.3139236257504483,-0.399804952888978,0.5852089220181731,-1.9710694018966735,1.7392589884255911,2.018022707946399,0.8565143254064975,-0.23563487703188765,1.2423680373815638,-1.7018833961534754,0.7857227231495117,-0.33726192521093196,0.4383117158895052,-3.154901532905772,-0.7499680622103448,-0.01910574382906904,-0.28616090837962416,-1.2578309503508789,0.8184448516359366,1.8731886862682487,-0.571674599371207,0.5242479780806478,0.5637492330527176,0.4370407286757656,0.6531358890583454,-1.033465075914744,1.2936487861452943,-1.0020071685843106,-0.664800063760997,1.5351377979920409,0.5472587354295133,-1.8216195517180538,-1.054130024683254,0.5700165081226587,2.1065201095282027,1.561054578621363,0.8018077229414426,-0.3048660873637623,-0.8833223622260321,0.1336376644801463,1.6719738017678798,1.307362624166864,1.3166610010593376,-1.1161225858610593,-0.21968279376792,1.2366314187508227,0.5667137625183428,-2.094002093843902,-0.6183671023465115,1.1308276641331396,1.2753053837292934,-2.8639252992112283,2.3019242733297394,0.017517507536286673,-0.35690293720179195,-0.46031950490040285,0.5001301691037604,-0.11242683094310695,-0.8894287998510307,-0.6044156248102976,-1.0002628149649186,0.2386510157419691,-1.5933682997868284,-0.10638632499880636,1.2101622487632537,-0.19670553027269647,1.5706621461255947,-0.7920889055848137,-0.3080013510623059,0.46959007791547597,0.619398894425207,0.7155409253188325,-2.159556604647644,-0.6627737084352773,-0.3695151040373689,1.5220640001568646,-0.7829558020986946,1.5614838725384428,-1.5201130976092077,0.030604006317279803,-0.5601394259139167,1.250757295323606,-0.36401819577341166,-1.6200762965561766,-0.8700934672190812,-0.011710337194736586,1.4925022730113868,0.5945083864420978,-0.009730320428590256,-1.135515032940272,1.8758868466860366,-0.662262724545738,1.0459982851776755,1.0793283758003749,0.8107705102388276,1.275299820265584,0.8315888606312692,0.46986744794138613,-0.5818487927769205,0.6459486597030372,1.0206325204128548,0.774175779490142,2.979086419331536,0.7677572454151291,-0.5900439436968545,1.3622049489048287
0.31006153240130524,-0.23216125992848405,2.104881416888331,0.4560804673658234,1.2128947693781602,1.1552858691378802,-1.8894348270318273,2.324884808285062,-0.3971584507761959,-1.066156531645528,1.0049959745782744,-0.14963296908791698,0.029576448972823327,1.081675912662094,0.7194132584955083,0.11819660059182677,0.9558142068924681,-0.06692155362057989,-0.008841436131994349,0.7422910809348043,-0.16332279494899815,1.8242148167910937,2.2930416127160704,0.20964751942333218,-0.22601521405464184,-0.6785409290828229,-0.762275269938845,-0.025202385425694945,-0.13751943328374086,0.9072051950326637,-0.43354320253651846,-0.06293204463969375,1.6418041266002519,0.03047261317937542,1.6164194165592158,-0.21345038628923224,-0.47965550126860873,0.018032261003814467,0.7561772955329316,0.5542207263798682,-0.6943672436035108,0.622511481383495,1.6202207161548998,1.3185703433239482,1.5677649516095047,-0.257143832219417,-0.4452919909749872,-0.6153015610265122,-1.4027389825361303,-1.5630302791003072,0.765224640120473,-0.5573740094902868,-1.6542970429554384,1.1840370031331402,-1.3007525672799995,-0.8569156636836683,0.7678678916067274,1.654188694924733,0.11811849091583095,2.400391476181091,-0.4232845514679658,0.42388549160591493,3.7044827918234158,-0.737041706898172,0.07754663401169615,-0.40819111067819047,0.36774843672919144,0.6740205686848255,-0.9987892597996595,-1.4051391682561911,0.2923711972766734,0.6720090572671226,-0.11302812335584303,-0.33424217624820973,1.7564681839582326,-1.0981901150431985,-0.32978725861306585,0.7974961211719822,-0.47804174489513956,-0.7127725659865579,0.5386799333031345,0.27907363660521645,0.07601243821117253,1.4867302404502658,-1.4782593471395242,-0.06423951090561497,0.7432521478853638,1.4584672804272503,0.816514561704069,0.6655337670255079,-0.6431108387910762,-1.0402885311661536,1.4890549961421105,-0.0516374032206873,-0.9758800459529008,-0.5663547976203759,-0.517355157929068,-1.240459795083556,-1.4503544234812016,0.751811483431045,-1.342316120027786,-0.6719428707434456,-0.11254839763724932,0.36514212666422,-0.7452219816006883,-0.9128982434480293,-1.2926565561678836,-0.24996342257626736,1.8288111528110664,-0.10074549694519468,0.09320892074204573,-0.8686148311681876,-0.21394419613415339,-1.464440195021697,2.5380014189956173,-0.231746361642588,-0.4424202931043037,0.3006635517707898,0.2494046756167462,1.3167552263650033,0.02435138411881889,-1.4770641013060781,-0.6958427034130251,-1.8007909149836032,-0.4299641669492688,-0.1504180135314161,-1.0666891596879142,-0.6911758128947746,0.04213127930201247,0.4383001082523776,-1.2408130400815647,-0.34885246795370295,-0.43982759877709376,-1.4384469689431718,1.9452126817453212,-2.2984377314205324,2.132500942359372,-1.3574055322476617,-1.5047689881910549,0.03244228471861912,-0.20291509125529883,0.45477468458529036,-0.20721215184525624,-2.391435698149394,-1.435869532200516,-0.936382918763927,0.18606058283555407,-1.4538697351267806,1.6927989138159063,-0.9778052740098906,0.8971910858771273,0.21409827679105461,-0.9299100882764876,-0.43817912250246116,1.8465698871926506,-1.1175162100719873,2.015554256113034,-2.169857782808789,1.3386477792457103,-0.5225142868057083,1.313072972391024,-0.3361190861239278,0.6773345604170825,0.2855200842971344,2.6601297214592625,0.9750942476634279,1.5243104986570126,-1.31371857837529,-0.14193192975029417,0.12173671324526844,1.2651542900441366,-0.45005160628316,0.5958966595239731,0.20250656153012658,0.6910629726581329,1.147534049190946,-1.0117269421898643,-0.8561984845839758,0.5413720568199243,-0.6210126968669346,-0.07931401482835354,0.21380560725554176,-0.3641827683226467,-0.5565507888589036,1.1547721394735888,1.360889048775797,-1.5042409336471945,-1.2614038852079819,-1.097452976268667,1.2828056665297003,-1.3408820532219181,-0.5789420490540753,0.3732337667440785,-1.3634130425150128,-0.5942040108297274,0.3076956342616129,0.6270816395364276,-0.39160571284734697,-1.861578873849788,0.551213414121739,-0.9912784868960112,-0.47715164387732667,2.0926867436770125,1.6009981218441538,0.6602124682777242,1.1229784304020312,0.5285243658865314,-0.42641282266554326,-1.1360620475999932,-0.335987050058944,3.200118598312229,1.1326882050212852,1.4487027450261565,-0.6722344854343816,-0.657920000223507,0.36897916373599987,0.1411558222584524,1.1133501661202476,0.29791675391308786,-1.6171930533588599,0.09358116341609103,0.34446008211825146,0.6292492928847893,2.0079150081866275,1.8952836460198823,0.14321860466949696,-1.6256291752157932,0.3080492299852201,-0.6535185171972672,-0.2314318987045086,0.12683894094266648,1.3904245010528582,1.6345942774612496,1.2078103374310656,-0.862757124077129,1.5799633507821864,1.5961225395778134,-0.6173336244932651,-1.1805778640972593,-1.4506319099772407,-0.284602471749838,1.093914774217609,1.0078615868664658,0.18266653721331763,-1.7208727159759725,0.3595233907001215,-1.1864182045181413,-0.6689866269444792,-0.5553344685232126,-1.409422137505982,-0.4603849359075964,-0.6745246991549038,-0.2508019405489007,2.1503635828465693,-0.2526182283399995,0.10726036201158966,-1.930687968072582,-1.1110101371358136,0.26340223194438245,0.9748468156307682,-0.31685754648639375,0.24483739956141112,1.4648723001478718,-0.8168291919722573,1.691816453360105,-0.28848072865220853,-0.1108243236799553,0.09872437033140379,-1.4018687164220096,-1.1848392544800141,0.3279518038903067,2.6151041132963124,0.6832762860897683,-0.4979830703739761,-0.6075603405051926,1.813143784957317,1.6516604046576202,1.2124443513466914,2.2242428802239087,-0.17015884083441626,1.922907046318992,-0.24918790893810597,0.9667384917798781,1.710648045702527,-0.05705276930745592,0.8618437952678558,-0.2307348021593975,0.46576688719965526,0.05305586526591743,-0.9858959786175999,-1.3611077357487944,-0.05022681559046623,-1.0718137726383863,0.7296664079873126,0.24531255633009302,1.1045781513400321,-0.9204287671504654,1.082006757114464,0.47858976191797337,-0.9862515031285938,2.335335574870941,0.1492287296479926,-0.1696175415212607,-0.00784819610827907,0.4666693449538737,0.034119135822942286,-0.922245214104328,1.3436059581844946,0.05172478846651644,-0.9321468750939048,2.708394921942798,-0.056250978158714986,-1.4347855446558524,0.33095081855531305,1.4076362629064112,1.4072014841140503,-1.3255085629300936,2.6604925331096774,0.06901195393850325,1.126424554590931,-0.5654336336663064,-0.15737109436102595,-1.3896484883843183,-0.7370522666767467,0.2578098658594365,0.6871987638260921,-0.1895314071544805,-2.8939622602846193,-0.6538380259055219,1.609431020954253,-1.9555594800089362,0.11924772508999268,0.12310892201194287,0.44076791243849917,1.1028050457538392,1.433582003068792,1.1541172999995202,0.6094979088802337,0.6412030800890144,-0.20780761777862422,-0.08387927070127646,1.406848534671372,-0.8222269006588283,-0.0882453637886576,1.2037549297814094,1.3321201920437447,-1.669419202849918,-1.869395537894655,-0.9125311607398774,-0.09589414891661295,1.3729582830405658,1.186200204266069,-0.4140600303907435,1.029811919656325,0.5620802956092414,1.1001133626968174,-0.09965450405442744,0.42055823661595854,-1.3608335889614058,-2.1672753087492485,1.8235368760686212,-2.538612716105691,-0.7085088472148663,1.3129613209920896,0.2690095879046641,-0.680055056439209,0.5326919054376803,-0.5804140657316057,1.4744830924979326,-0.3347600890284817,-0.7900134683276254,-0.15723029462634616,1.3408013347672156,1.5832458335792634,0.7855199683133459,-0.6109742540219422,0.22100351236161317,0.7664200662507717,-1.48787867391369,0.3247134370315592,1.9287105384696897,0.197725092682025,-0.7058913856510746,-0.25939602841543735,0.3205085327509141,0.14168480933607552,-0.6826930093220307,1.405327918521623,-0.7577556923217448,-0.43622511671984604,-1.4298141751673497,-0.5069170265588696,-0.2031299554223685,-1.6704830944556612,0.5093515327477808,-1.221046573277607,-0.9350537004661175,-0.7374552749434065,-1.1213943436209706,2.075317522293515,1.258081029969307,-0.17339980489375148,1.825684171331857,1.5291287699683835,1.9610159167233814,0.35805362445958694,-1.0100204013056697,-1.6340860077169461,-0.9776029643067835,0.7384548036895457,0.24857192607632903,1.2563503019141034,0.4684426254442299,-0.22880167589567188,-0.3375107175270028,-0.22398632973579619,0.962547019417283,-0.6386162754546736,-0.066412601174057,-0.9868316841520912,1.3192780316624655,-0.20327236399324994,2.1269074383458046,-0.21006186355346573,-0.09157527530996754,-0.20806255160721288,2.0524706954593492,1.1632202721900486,-1.4655019435028038,0.877226516324253,-1.2541681509542482,0.8045093862077584,0.2800466616924644,0.43494688648327706,0.21457077705827615,1.3498843028233127,-1.961520512566649,0.9155870644723837,0.8642526026316903,-1.9762160703685223,0.6219920151627472,2.375125652738366,1.853344389247737,-0.0745915988988097,-0.0069196643444499615,1.739061236238738,0.514738692620697,-0.20611429594674366,0.6540124465585544,-1.071949893017893,-0.15857389674169306,-0.26108682239136555,0.14577656799829797,-0.02973008758090026,-0.5209608391004907,-1.6198907046234616,-2.0138845090474304,-0.2899923585182958,0.6563086058610265,0.7739666253319477,1.5509860689594155,-0.37962533990379377,-1.6599050234839599,0.1904400225889742,-0.8928267612051978,-1.6056273708027753,-1.0017115570146349,0.1454871314175348,0.8186756067699164,-2.3921521443535076,-1.3136212782157526,0.28176441388253326,0.5936607076048768,1.9417984827122117,0.15659794787918793,0.4384828755172593,-0.08588694103338913,-0.45265741123607617,2.0631539792170273,2.2297314684617455,0.5649985935787848,-1.9326076110538546,0.052370074823243844,1.94453772076344,0.33735657491522797,0.4859690672222936,-0.49303854386847334,-0.5747351628539664,-1.5175635947468373,0.7350051078239339,1.4331404840302804,-1.1948259038638824,0.12417483158118646,0.29026195245139425,2.723313026496494,0.47785421005089446,-0.3579157570803557,0.720604558762476,-1.0027673297917787,-0.449574294340462,3.0098534593517727,1.6689979866386333,0.960165923601237,1.0995858996656855,0.8251914750577195,-0.6393900867825212,-1.5087688065324574,-0.6738651613103441,0.7053352227606026,-0.8462532005407309,-0.6008958124324415,0.7913554071009793
-0.10898757753077744,0.2193473571141996,1.2242692601260263,-0.17345790925167484,-1.351447726943199,0.36753056598861633,-0.6017036577993017,1.1768324684735014,1.08136876149551,0.9549150847764054,-0.6230172031499536,0.42982493352844225,-0.887424419994214,-0.559114473473131,0.9845809709559982,-0.09798857025443682,1.6967957285941069,0.3242073594151055,0.36919674799817587,1.1235612377233835,0.2716573576284053,1.4251366798291925,0.5777010490775683,-1.4250786631825845,-1.9420828020817364,1.55872700107163,-0.19553879275891842,0.047557990887699735,-0.24328987708175964,0.06949499259327375,0.019937601914638607,0.8623440641997481,-0.5642976296244215,0.49574050220237814,1.0575818298794397,-0.40459132322256436,0.2476939156476456,1.7135278436673986,0.7611891706544558,-0.33327865836868836,-1.695807990399991,-0.8201620871736025,-0.14415685138772708,1.5546341228967913,-0.42192257828068663,0.8132508130182189,-0.36602471469431214,0.5931226304299709,-0.20298536530528166,-0.8251630131925062,0.5584140198953566,-0.7286503454884843,-0.4712837951364176,-0.28714948820849584,-1.0937957184100005,-0.12008163367838806,0.8471244230677321,3.1596481345866563,0.7509223975802993,-0.2614120418081096,0.6898840258320661,-0.33880301471910695,0.6683876575679798,0.8370259472527418,0.684191797415506,0.09035338614066375,-2.930695669985377,1.5682959858549972,-1.2837903729665485,-1.2796749079200584,-1.2831868202735588,-0.9439889104093102,1.1438629350218088,1.8384017157860568,0.7004820325965732,1.9691953033905023,0.08346532492606958,-0.11657151515165898,0.11981075205973975,-0.12507350313970111,2.0749114729341285,0.9570370093407236,0.1256300850329601,0.9586392202777709,-0.8083282948257194,-0.14358139341384754,0.7656589048475125,0.5161330414986621,1.4928553669224678,-0.7927829896786339,-1.2474696772255967,-0.26687733139493985,0.1409794430186822,0.531685491950245,0.10818598538840418,-0.3248111719895894,-0.8208052339904293,0.845549556564997,0.06726102957781344,0.6955124399940743,-1.1302951167608875,-0.9475395992102296,1.1026533036070285,0.43302357918360795,0.5373910850529053,-0.008546546438440121,-1.3210560268474745,0.07003345553026584,-1.1238154651937462,1.0338086649799745,-0.14163696414194435,-0.653952402473775,0.14353936761316446,1.1978450666575104,-1.3232110745124868,-0.8531609997550018,1.0408418646203665,-0.7456047380063864,-0.39369529881713433,0.004389875510655539,0.26105513683139775,-0.8140339602634129,-0.8841604497962149,-0.4425607838762702,0.7959669919712742,-0.9113450590558567,0.11256651001615807,-2.402233516949632,-0.36416473611365796,1.0403782490444888,0.2285871435287288,-1.3374357170772642,0.345589042511296,-0.10054375341035966,0.8944719354562558,-1.012128754720066,-0.569797228603259,0.338793482696699,-0.9432469216652054,0.6861983902478057,0.6205876180512307,-0.7195324094044944,-1.1728199515224702,-0.09348143970997204,-1.1941194815194327,-0.7010489564532926,-2.3487877468763187,-0.8157169149415388,-0.4844441786090076,-0.9411656846442733,-0.05647685590623788,1.3370868349660665,0.3373748914646299,0.7046789277680231,0.3323826606013502,-1.0953940511251923,2.5427128625086453,-0.9362583993526264,-0.3427443880337339,-2.3233913061896154,-0.24581091790327927,2.9454003069846157,-0.7138033110749917,0.9346090615177399,0.9945569166703224,-0.6429158589970818,0.6333556008602029,-1.615463901555598,0.18445700674221138,0.043891768742413115,-0.9759317825494385,0.6376053192470532,-2.1929224665834455,0.637457077231567,-0.8985810207288009,0.538253363842985,-0.26715462993288613,-1.9435362091638284,0.3514932365216981,-0.17035824919935433,-0.10696696737270871,0.6524627481536059,0.30078272196143746,-0.9249609598887691,0.6756938415258327,1.1556906360490533,-1.8681287329330067,-1.4028345414004122,-0.5647957165216924,0.45555279933300313,-1.3194525788743356,-0.1532459026150405,1.3143966019455444,0.5396716978452334,0.7739688819377001,-0.06039676569578612,0.8793118794089638,0.6443594610894718,-0.3117812736002521,2.086706668763261,-1.039267750039496,-0.40747322508664424,-0.5142623450818448,0.27578582494791815,0.0804270981883344,0.44088818748592945,-0.1289484343843632,-2.3861281506128966,-0.6053347897247713,-0.8775791439172826,0.8475693484771057,-0.3428533054895216,1.3519198780690225,-0.008149983686563115,-1.346613209219479,1.6450400623691506,0.7656013665500152,-0.08607477446510048,0.606108681931827,-1.5326785632533573,-1.0256867981986884,1.4845614165909973,0.1088256437769224,-1.0744837560953122,-0.9393947875926735,-0.9058257672178713,-0.953033160526786,-0.6360175045676392,0.6315071149699563,0.656620718513209,0.31308107209338953,0.8753951017514462,1.0748115831904095,-0.09135307997789516,-0.5777860247129606,0.5161066448304042,-0.02561265422045954,-0.9335191123523623,-0.9940802319899371,-1.2448306574055719,1.0643864269421768,1.006101347236153,0.9613948991530311,0.2668415084856565,0.6829334180811247,-0.08945951600541212,0.8271433722042528,-1.529665071865272,-1.570512847059114,0.19917281918140792,-0.33920557111332506,0.8190046953593125,0.13128120666393264,1.1333856553212982,-0.9077997309635069,0.6380123938571965,-1.7972150372491549,0.908337880022281,-0.3721923878929065,0.48846714998774265,-0.052207624935222054,-0.9292003382271072,2.259972233891566,-0.8548632194948872,-0.18722852171704085,0.46245296286729587,1.1014094967661834,-0.5498353288794853,-0.13123702940344636,-0.6223803527484687,-0.4057992746718583,-0.8733407959296705,1.3406376046807165,-0.42527930199424663,0.33783527772873256,1.8872763267189214,2.273010116086986,-0.23777669439780247,-0.14129950971907748,-2.046979725564783,0.8905269303341453,-0.5734299169235239,0.3807124165313335,1.6590418826546063,1.1615341808693125,-1.0809554321945718,-0.2067199258093006,1.9880056896592415,-1.2734491857553485,-2.0355135832211224,1.5959070375857076,-1.179332789071404,-1.5820883851033318,0.43405114903468384,-0.48961712406177293,0.3549575830486461,1.075799077509203,-1.0882419417211253,-0.7335510994086843,-0.73373550808617,0.21365388860646892,-0.4104406067025954,1.1629878415720922,-1.0105258872822516,-0.27333387205596604,-0.5849960929458319,1.0133247257226183,1.201081672474224,1.0680064701528373,-1.7578586800507445,0.8383106197814513,1.1136489418846998,-0.09533901632950864,2.436273677066136,-0.9184577400042881,1.108917819701533,1.061305946711919,1.2586505497349294,0.7209826195534915,1.504494903887337,1.317257401302784,-0.5246288907964214,1.1355380777978448,-0.7178406176969828,0.25668953505542863,0.27559683320070455,0.3266528272693645,-1.9962503873451318,-1.903003581468993,0.7100835898446621,-0.984553499410479,1.149824163202264,-1.6929839882166609,-0.8695583769937425,-0.41186189033800846,-1.0354994333911212,1.090919123150627,0.645429577161181,-0.5914818424534247,0.7715503231589262,-0.13416944314784734,0.03824992209923632,-1.2090763293654008,-1.162946877255603,-0.10015738976596637,-0.10658515965002732,0.7462576703984124,-0.998512058775135,-0.498423380074328,-0.20089870995387657,1.3943754478368862,-0.43083868530483965,-0.6181624390396592,-0.6976784770408146,-0.868881233924006,1.2565720428890343,0.32265487212198446,0.5080263336763482,0.25367960011681595,-2.164962544724475,1.9522063786293382,0.294205705773123,-1.4105262232070432,-0.6635098716931831,0.4373108009511947,-0.5755756392300804,-0.5749321441963281,-0.6741704516210184,0.06269935584389108,-0.24884942499997034,-0.04316647055326843,-0.6102620703750838,-0.20554934715315096,-0.9464168043687501,0.9407428277489321,-1.4204732921603458,0.3391863240486459,0.09143616591031396,-1.9399989737547303,0.39504279656171065,0.33656422563783356,0.0985678062424167,-0.30812841670072466,-0.713160624537898,-1.489270058010576,-0.9506786721876365,-0.24429312891283678,0.15962105968187415,0.12886173852595037,-0.5514919316254875,-1.102566608233015,-1.0680313132971033,0.712237613073538,0.07726727255468503,1.7950659066678876,-0.4839498795014783,-1.8415069382260025,1.3529507933774805,-1.2691507214144797,0.0638248269421094,-1.310044695429491,0.9923484218451303,1.4338262961154273,-0.7140962464492261,1.9037559733735383,0.4168884095762543,0.4727223803047457,-0.18046756924634144,0.4079122245101176,0.13692773356755591,0.3243995103673966,-0.6908928709967805,-1.6857233578266486,0.43043043514424645,-1.1576083417372993,-0.5331322114097596,0.3600329790827522,-1.1959171628739982,-0.6799217880853755,-0.3583209407365284,1.8102168343325955,-0.9266502714152635,0.4603809977918246,1.302256113920019,0.5206302916494177,-1.5214993091065045,-1.4812267752457378,2.413270790132398,-0.7017268736542615,0.8943946245177586,-2.0938727545550533,0.5146563742813715,-0.2528887995815019,-0.2875928319824105,-1.44785774842622,1.2523336795815907,-0.727005440347754,-1.9059155735581599,-0.19984380465355772,-0.6220537739703862,0.36742477765092996,0.6466364731761443,0.9152569699043832,1.0311753370801973,0.691307955327995,0.38522828149986077,0.49291279065162946,0.016616225205054274,1.0703856278510229,0.6329373931373111,0.15004146973841803,0.003289485313259372,-2.3050526811348147,0.4197398861837676,2.688363445604412,1.4653096244733412,0.01704397294185517,0.6498886356514423,0.32660916700849063,-0.24817630540450947,0.8487424679503841,-0.47880674257444766,-0.5900522018731391,-1.4304481465490777,1.1994122934998106,1.2782758074479863,-0.021156170344682288,-0.22918790646570267,2.2525428259990714,-0.35137422337781066,0.9436510187612503,-0.0837707494497373,1.1925207971619238,0.10496862132982539,0.48378754907186916,1.0687914548404298,0.19842973350391513,1.0172482087741248,-0.2834623732134309,0.42358449651708346,0.340657976155764,-1.3507582220669743,-0.9866262616575657,-1.0541072272161378,-1.2382196288195113,-0.39849545341348885,0.24887929615162097,-0.045871622705062086,1.1063457458211587,1.3819292826108456,2.6611161781130686,0.5151335192304918,0.5387285123403314,-0.8007046507501606,-0.08013166499796882,-1.1694371153188161,0.9683190472426212,0.04429906650791724,0.2365646103540321,0.2415383755968779,1.8591176277068717,-2.1758722962117854,0.3647805931495417,1.0443695733946952,-0.8089877915998898,-1.4643859340909637,-0.32098787088991304,0.3127293055511321,-1.0165785220561172,0.3164912874651872,0.4982736629504323,1.222752621128516
-0.16360731267030726,-0.3651797203988397,1.6131761272992684,-0.00591330009816746,-0.43799813872052856,-1.5062117483400188,-0.3652243462722737,-1.1413509926992247,-0.0014595976971553814,-0.6756545584487459,0.24245276972841137,-0.596707805684436,0.28834858637190947,0.6245507191628441,-1.006647040107633,-1.892233776282882,-1.396596801080874,-0.41250574710169147,0.2878670402756633,-0.3695219191127032,0.05178328618309884,0.7136289125132862,-0.7315554806762263,-0.8506429107690715,-0.19076854250058087,0.4556756667229582,-0.21179632012425673,-1.5046954020031356,1.0896849543222042,0.15311763468353728,-0.34492173402537374,0.42975986068876093,0.7426533723128274,-0.3520979752624526,-0.1443475841761712,0.18291819832854156,-0.6621087924662902,-1.7394530321293067,0.7693453663484355,-1.8062606309210252,1.9168801807316518,-0.16203924768743905,0.22814468114773895,-0.008613661494027671,-0.5206812602942028,1.925695286715329,0.4773639272094455,0.8455018338028429,-0.04138222137006832,0.38808664051834135,0.6127783313442848,0.5757080933448535,0.39965048474503306,-0.5144528891400909,-0.19480786881709766,-0.8636775472334793,0.1892016741538404,0.1403618416947151,0.8122449886788533,-1.0622314152423473,-0.2738372497690318,1.2923891087603778,0.20675488302859574,-1.576514120142379,0.09911896444091466,0.6846177318394416,-0.1534249617087365,-0.5874923090069608,1.1220454982045078,0.79910415312653,0.5417656388039618,0.7181431494959423,-1.0683980142348732,-0.5463159116883312,-0.5158891567349967,0.9011396411242532,0.14709377012188102,0.2683913052360433,-0.024153671780125258,0.10060019502487218,0.11712842886001784,-0.2493865995430231,-1.142409360508507,0.48369346366464966,-0.009155694602124616,-0.2843986272889214,-1.2158070091541084,-0.3707765272491015,1.5058288607260535,0.08175938015772924,-0.006456195056127386,-0.36375039736698656,-1.9854173647348003,-0.3689256741283379,-0.23617884094149497,0.1921096562853156,-1.1625482460855276,1.9115460321276394,-1.0708563778186369,-1.293951605198183,0.43568529152529517,-0.36409620789159663,1.2223158553365068,1.0168716753724485,-0.3559878205817385,0.21690160298226696,0.6321381632256937,-0.0456388178139443,0.26976461742229013,-0.02458866548085848,-0.9941027477562808,2.9847251421762904,-0.7882648418319085,0.25188666904716034,1.1069752328923865,-1.1588461674536705,1.3453006386104394,-0.07049711175913011,0.4687609838243033,0.06685259421744957,-0.24905671519529185,0.42995672267389845,-0.21661762582845678,1.9016354125982387,-0.245538281763657,0.3455788506934742,-1.329075948732371,0.9384347214072661,0.40176083505367666,-0.39980475597833576,1.859408192026338,-0.8173408591366399,-0.30352991846082633,2.3758773908004676,-0.5736011241293903,1.5656845893461435,-0.7016079633424096,0.13239515698086882,-1.1942211468764834,0.8865863308144412,-0.6570744855463712,-0.8581440524642538,2.2205696600947507,-0.9436587390614116,1.4762303194949113,-0.45266796197320847,-0.30466107388538693,-0.052373424948905054,-0.6774097801337928,0.43306281649686423,1.5963937217550328,0.7018243170451427,1.3069911766222189,-0.11419645737530584,-0.5930831525078176,0.7277104731553612,0.10136288611288781,0.24057641078020747,-0.8136343262201149,-0.1925560900782789,-0.027492788207251255,0.9677326876922361,0.5915607993633437,0.10546312350088625,0.08590247829728949,0.14328825649182247,-0.9490409230325048,-0.11337506473013716,0.29381553103287894,0.8737404205979317,-0.022980053277641632,0.5444803312741071,-1.0650018415485212,0.06971661554276902,0.39663479294669207,-0.47608276984545517,1.5253108190112319,0.25512521409370864,0.21834192296873714,-0.27647874592559163,-0.7675248895008009,-0.1754228032927832,-0.11134653966527809,0.3480694962022008,-0.35337202548499497,-0.9940432261199508,0.00927377158005865,-0.16562321011347952,-0.33926399052944683,-0.18500373105360593,-0.9284736118638074,-0.647287609934079,-0.7599271641876881,0.8552981768214545,0.6074932547711365,0.19923854609773098,0.12915919719964608,-0.7920836057106038,0.7760807180904462,-0.5042021916464439,0.7366309704108591,-0.016664534552916898,1.021344011469036,0.03909058178248343,-0.8119547131582984,0.1812449517898768,-0.5087515177151676,0.07011828400328234,0.6969093918750109,0.1379624435081635,-0.35860026813184465,-1.0128284563464354,-0.7426757961349078,-0.9951698228443644,-0.2934819101887177,-1.1338412292333406,-0.4187276383497825,0.9789316511259484,-0.41716583840216154,-0.5874517056712002,1.9599233414712425,-1.5471718998021642,0.406700398370121,0.6573799326723813,0.3679399928485648,0.6932904326401546,-0.44584067507722913,0.40068891345028446,-1.2277470728912527,0.41955227735103984,-0.6655715345168542,1.0134117094871178,-1.7945406811745739,0.87262448952319,1.1103638744162023,0.4117659273897643,0.33500680596439586,0.024719337960866828,-0.1059132068319137,0.7270520200901118,0.2762969997179079,-0.05600629038671506,-0.27621111444751156,0.5101228820063861,-0.19239623761238894,0.5883922638588921,0.414501473479775,0.6800894198597234,0.7797865692853531,-0.26816709302479336,0.08491629723381713,-0.004559105524536443,0.10552991487045639,-0.7797979171470029,-0.5221112763206006,0.06342978925472988,0.23504847479726307,0.09207191973677191,0.44192644947665977,-0.9082750978591114,-0.4226265793908803,0.23647052888882897,-0.47889723744034,-0.7071201763413152,-0.516632013124714,0.11214370280332984,0.0753610476273648,-0.1469270577920879,1.116324122061898,-0.02953912880113707,0.7252872726456063,-0.009014436906503954,-1.4623121247707007,0.5342954149287822,0.9527288315508515,-0.7010295047869706,-0.9969834007603433,-0.34486966797697444,-0.4776221496235562,-0.0890350271835715,-1.0546567310411283,0.13848014341324244,0.7530699616307723,-1.2226248358601037,-0.11446666741521114,0.6736326360347112,-1.8207354761262469,0.20831131592825525,-1.0221514904301419,-0.07569256546103628,-0.7250527907218662,-0.6405763536701179,0.8258069066834182,-0.5507050319067924,1.4530281257100708,-2.267150509995035,1.521871140663026,0.5235334003549253,0.9199421362945958,1.1717912879545413,-0.37907411823421017,0.5522911358154464,1.539488392592521,-0.04120902117350973,0.6665607265711327,1.3634218330540213,-1.0137322550092076,0.2262337662567848,-0.03462072845276871,0.1927686523275668,-0.5269470019664598,0.11264977469048723,2.3723945852657655,-0.5638538383963644,0.9317720962892031,0.6170073267214301,0.33402940810386966,-1.2921245034254458,-0.9483188183861566,0.09665698009580233,0.40146282413030115,-0.6526362482922499,-1.515010769762083,0.5948521647722802,0.8689548553320049,-0.25870685572984914,0.5079703591405581,0.7790782805351384,-0.2550070679153947,-2.790417635948071,-1.1000274111763662,-0.2041505002407052,0.4478111349018147,-0.37264418616056394,-0.43856802079355045,-0.46679437791939254,-0.7766498000320877,-0.2963243272848904,0.14574486636317238,0.3875332657228616,-1.3026131531263272,1.1467038758911423,-0.11291446915893844,0.08260684063837992,-1.2835618246982763,1.2214115798998761,-0.13495565308099558,0.3828774802831895,0.30241919231414816,-0.7191789996020418,-0.6197699004966238,-0.8938920070254285,-0.7556761482679007,0.16931859924212114,0.49831443056467384,1.5483637287868157,0.21029470018941596,-1.5527181069078677,-0.21783961783975714,0.6456533958420428,0.3583613865626301,0.6516882637608845,0.27327273009435166,0.9663522046803891,-0.007016923812305416,1.753573175679473,0.9041791155052342,1.13649298647344,0.6464726368805065,-0.7527515104161387,0.6950354697916598,-0.4771684976103438,1.0730337796478424,-0.4427155310123666,0.1820109855678701,-0.09264012951548997,-1.2456830487844945,-0.5554102733396461,-1.7772619456874792,0.9875528679745632,1.0219426782644714,-0.3104325277263957,-0.49764244207774366,0.13649145395385465,1.036411612354449,-0.2822827384709918,0.25485002974418897,-0.5607873059086176,0.851516269134886,1.337368336343169,2.11739402178551,-1.309405644342745,0.6108293824711547,2.621000333770198,0.12555443521420248,0.4971816863166666,0.717218999396785,0.9752547210905719,1.032766117705976,-0.31475551900195725,0.25551834195964623,-0.0016946710657875026,0.08361544545161584,0.8808836600143585,1.2732510476453671,0.8382663356838187,0.13335924368145924,0.5315336456947655,0.2478472753498073,0.6269792612239259,0.142232248536866,0.12093851430067175,0.20349022664111344,-0.037693119899543916,-0.9118060406457927,-0.014825878815471627,0.7853192741988194,-0.22680832489840433,0.024041994228371708,1.080840326798204,-0.2901879266576056,0.2480987242702446,-0.4242961446528941,1.3213073147063983,0.5925701907131767,0.849972652848942,0.28078657788325334,-1.236940889571468,-1.6269997845272777,-0.19301271104414203,-0.5695569755197047,0.6019875821034473,-1.3901752904837492,-0.25265438282761526,0.028763988577736432,-0.029301294295113675,0.7203979333708598,-0.782972352824743,-0.3238828193274509,-1.1941755602694852,-0.09286754231893449,-0.40719723603280505,-0.03902762529835146,-0.37654175692305897,0.42147144662606145,0.739196796460819,0.7694825331168894,0.5967479455684654,-1.0598370769400116,-0.26355437797616,1.0642664834608535,0.008461588309515985,1.6679299958194465,-0.20465161621958983,-0.06879141505908834,-1.0133549078396702,-0.5151078525803364,0.46562662350817363,-0.43569817546677475,-0.4527281367482151,0.38356281525816666,-0.43945876198810196,-1.3729763590708484,-0.6790653237135108,-0.34800836451944855,-0.1362863703973035,0.9060334309904972,-0.060916896387373,-0.880220660882893,0.3041941660095194,0.39486457693304833,1.1600054984146193,-0.9715367595126445,0.11181136444152373,0.6985771408726381,-1.1195908924504696,0.5230694455968165,-0.3877001930195659,-0.7846146481359427,-0.36257050111776834,0.11694438809641142,-1.3931252991814875,0.6905651634705468,0.5928745278577168,-0.5342450122006847,0.5540400284544948,0.6779683776120847,0.01616191172694403,0.8613604951166433,0.37628533185533997,-0.44831581225977546,-0.7585708125231555,-0.14171358898687433,-1.672411101043127,-0.391291803097426,0.6851284263072737,-0.3599234046175225,0.45039433063385914,-0.055811153431840566,-1.164838618133418,-0.2664486939114855,0.23019201363600253,0.9483319243207822,0.2583575996130461,-0.297038797806251,0.15396219349483958,-0.14062843144901807,-0.5979585684017693,0.5363394362326991,-0.20815250395138324,0.13679209846465462,0.45613180968881406
-1.7084285844746716,0.2227037184090073,0.6513708494680931,0.13035404533224776,-0.9036591521274744,0.8043013466200875,-1.080092624134181,-0.5292259906849391,-0.5280327700566323,0.20010221196078343,0.1801328682692393,0.04896081066184651,-1.4910540309892903,0.7350218024278565,1.2829355850897337,1.7662255330249805,0.5306040428508804,-0.5025905719325025,0.3039329064553834,-0.21945979421926937,1.5025889667562151,-0.8323234281592206,0.8557863415683725,2.069313718217595,-0.8749717802662061,-0.5209920869598257,-0.13952006658284075,1.263988391772627,0.9683957090915409,-0.03144133666737462,1.0502937213214383,0.14939253645144288,0.19460120113066784,0.7975950938530898,0.18838635680604232,1.3018865363483272,1.051190465474191,-0.6148592834492072,-0.7192975361291616,1.6461558795090137,0.13429590913159017,1.2384362519953198,0.4377082606091223,1.1480845858677702,-0.3217810900919801,0.08846579627683976,-0.1258814979731379,2.3762460501765617,0.09271897980596737,-0.20833033333811707,0.3450697503778122,-0.5000605421013432,0.2772752307938194,-0.1271010564604327,1.0233643387798008,0.08743539921253864,-0.9859167114368832,-0.4529764424025707,-0.4845668122545878,1.8941089167695906,0.41407508910182084,-0.20336874969730148,0.7024351158118755,-0.6107905764179647,1.0171256038449972,0.26698668263881825,-0.552434958115927,-0.927590173834359,-0.5500491210580446,-0.1417171928005327,0.664947405731578,2.6141111634294156,-0.5863833928908092,0.08737878111671879,-0.4272614623300588,-0.5897680557710185,-1.4253428582221337,0.2108168034478975,-2.192317743993659,1.5662205051472684,-0.90945897945942,0.006968080220947735,0.3485518732474207,-0.12606714321879703,0.49117417472961084,-1.203276317672762,0.2803306999089499,-0.663938648629045,0.2744480716423751,0.13605910555828882,0.16506838272324217,-0.5622904376801073,0.23352710894141068,-1.1345099187221577,1.2945535427676738,-0.07171198858635458,0.23255226636729615,0.24489966138140679,0.2104055475685911,0.611284272057818,0.9824805249545778,0.9677926987742658,0.36333746696507147,1.9714714790749215,0.07265257959573787,1.4161550563709286,1.5657916718468678,-0.46693505039713823,0.30985219247332996,0.8448110837661091,0.31087822900072176,-0.6654191106331967,1.2241718105303803,0.6788897906990072,-1.8238833160449275,-0.16524532457978694,-0.013911636586435341,-0.5522711648879771,1.31664873287188,1.5271884513741742,-0.6946398044748892,-0.8537791107057754,1.0789505778066661,-1.4872254279282513,-0.43635805537071687,-0.7258329668370105,-0.8106910155621455,-1.0600598608842668,0.24627779513930134,0.8100442618492738,2.004137105140202,0.9179430042095472,-0.7410049605314601,0.23311463218699652,1.2039693450322864,0.24069627383930578,0.49605680247055933,0.8294112926616077,0.2742727631181155,-0.43984475975110804,0.5573719204521284,1.2684142664594793,0.5580702233631762,-0.43952859421259105,-0.6890075054751384,1.937026789724532,-1.3470924136670308,0.09828905252934923,-0.4118090360582282,1.7790006466114276,-0.28604672536228,1.2635874366511537,-0.33728666859770134,-1.8117938560041793,-0.5745889894828281,-0.4643528254688637,-0.6030559601423191,0.5447323031650125,3.2475694860063418,1.0411113776382195,0.0028050292624852914,-0.6219599782085964,0.018993049683423212,0.8234797744107507,-0.17828659290457932,-1.8166747506730339,-0.09281037786698393,0.06179984200675682,-1.9080520485126349,-1.6622493673486938,-0.7012984705292314,0.701351873007093,-0.10491388835628616,-0.30347473072269177,0.8190422163848763,-0.4823788776762639,-0.8175837611174831,-1.1418436488766857,1.8905869288795445,-0.3089512421703713,1.085786283123203,0.4839499801641471,0.793553045038919,-1.863423885324643,-1.3641026650458417,-0.47332280874493987,0.26761892321023,-0.7363332240809867,0.25682778520572663,0.3792279321731831,-0.8322401061093069,-1.5227530446264017,0.15435882146914595,-1.0039632758313686,-0.11393131679505303,0.49279785768990764,1.246059018685463,1.2804654473032164,0.10656010768511297,-0.5479786350088374,-0.42141847294058843,-0.7471084633797163,1.0716031226621847,0.5811356557909423,-0.4081520712922144,0.41088900280440316,1.1303896719116568,0.4509338170839704,-0.6265413467956956,0.5858214359630106,1.4824062561813889,-0.08878300017999721,0.14824179376785993,-0.5067321466291471,-1.562944572561877,-1.2458589790364005,-0.12478538152387111,1.1460133083674564,0.7419177614358549,0.4850118634994558,-0.08750393165416863,0.471436441050759,-0.21032707526200095,-0.9134971061206311,-1.2786311101024563,-0.09245306880907561,-0.9987240797793309,1.0918906794971637,0.23783722580004296,0.7130853828595647,0.10223316766690091,-0.35404689007866513,0.7874715136974272,-0.7601780053027001,-0.6519364058595241,0.7538121878879417,-0.6119560504483285,1.2130014324972673,-0.10501490744480546,-0.11389890412180095,0.005515991128592852,-0.05016677442941739,0.39490728479114207,-0.17867685167090647,1.754033942446818,-1.6945146862596487,-1.1069800683642588,0.413683682636277,0.3748294070786661,-1.0489447538277108,-1.1132896324842863,0.7912350290994107,-0.5686610784762857,0.11075814609361286,-0.5289684344111574,-0.0725974831082014,-0.6934381924444118,-1.7236297535177012,-0.2661437690016818,1.5912229252334356,-1.1825681561294112,0.36199063256754227,1.3351431008656651,-1.05303419615929,-0.22990469785094178,-0.07502390730574338,-0.883326063646349,-1.1740770061978172,-1.2048209872081241,0.6401290871549463,-0.22460805347624985,-0.24870011490556693,-0.6618540134105866,-0.9691967883774706,0.21500418143378977,-0.7718589453148841,-1.8891654506161342,0.5924120566433217,-0.250113135936547,1.9409996466375927,-1.6586161606466372,-0.9681074263752405,1.0034415457773422,0.23870387705490104,-0.0782955024163189,-0.31078570434590796,-0.6764798349548848,0.060304180794172435,0.16119839934538238,-0.16058406320900706,0.9512058391896993,0.07816502543869884,-1.0204650769452737,0.5563960201936369,-1.4662438100011734,0.7046912565371333,-1.677252730816176,1.2077619281970906,0.4980930428240104,0.772035023235611,0.5651631824368786,0.5876778451262291,0.25259144223387187,-1.7764102108750843,-0.5497373855016512,-0.1190203330402367,-0.0017076338598522494,-1.4876477554554837,0.9972031632051666,0.9984052860789798,-0.20029393696213676,0.4831245806634814,0.2289079359365992,1.4225093359436192,-0.43725900837238135,0.07457071583098995,-0.0008667920347017247,0.19075367060485468,-1.1350878793994834,1.4848425732622819,0.6762015278527973,0.7886647634161956,-1.0534708356068345,-1.6134782432594084,-0.7040064789111183,-0.42942039784980274,-0.9446618001058504,0.06987533062201566,-1.2794264255087127,0.5906636359092925,0.19582163238179542,0.6131072427168879,-1.214168090262345,1.5116556461552764,-1.1910940496272313,0.43064074348300047,0.3328148919883617,-0.5902663997520854,1.63644676395816,-0.728170706003862,0.8037474767947496,0.4851311253890706,-1.0063674663703777,0.860100757273735,-0.22737147115507403,0.7815058510563662,-0.2565482523119196,0.341976598621067,-0.5248008384350097,0.5357342902475509,-0.5176190763955135,0.07954926459878592,1.1344043279095435,0.1245240407063372,-0.5126272243484662,-0.6927936897900109,-0.0324395938091951,-1.021238361221553,-0.6798476523392487,-0.5529266092459337,-0.8078807405172196,0.1570985223634195,1.3684375369641477,0.11898473215480326,-1.1143496469313836,-0.013407551398964835,0.6020386937951672,-1.311641451373983,0.9201857739741657,0.21026849345012863,0.15662086174604353,-0.9531272947149485,-1.3202028055220565,2.0873025800853706,0.8059585515487074,-0.1967195612232167,0.10486971280720625,2.1154694547371355,-0.016078466149075106,-1.0184732624573294,0.8181315201923526,-0.09586120599644536,-0.29637220699927275,0.3120100251054939,-0.09753985940112592,1.4474458134127386,2.213753593485152,0.4432150108366584,0.0521403218213192,1.6448494782000236,0.2584993507567683,-0.11569898236762866,2.452369192176843,-0.9150881847701419,1.1287548586502316,-0.7545775004716909,-1.0110893860435812,-0.17011189481021316,0.1565193142118513,0.18852506449668757,1.4855308394412308,0.3664885260690111,1.6021662920820532,-0.08264970476159554,-2.3055595858551174,1.4292905563444271,0.5340246070036805,0.12512736438515615,0.28643462700129024,-1.2874480860311803,0.7730567479514499,-0.9291584731479939,2.4236289518422613,-0.40579149732547365,0.4269866448206211,-1.3298387263939269,-0.02430210951097916,-0.9537681059698976,-0.5985281228750073,0.0644580555288997,-0.2651811893204746,1.4428408980656082,-0.3480220556807811,0.8539201854275448,-0.4723309609617522,0.7449851612575261,-1.298911077890562,0.24649942214720943,0.13798959104094696,-0.9888605698359961,0.48188833311196727,-0.31098406461499334,0.5968745282589293,2.739094317525963,-1.4969820838633896,1.6874994115736064,-2.350270816285459,-1.5926389903440274,-0.08533711179211595,1.635757176804013,-1.5840370927190837,0.03687805134859015,0.33364739691536766,0.810614060795953,-0.8142479749955404,0.5348772523073037,0.5463709735085305,-0.2264984493636765,-0.166006419045511,1.3653658757558336,0.5644996101931703,-0.3579613986266405,-1.959675131839234,0.42523143005770087,1.0481456255783297,1.2027121963432972,-1.0095778308230836,0.4639502176696411,0.16907997546369907,0.21831079943797885,-1.0023727017288027,-1.9078896597814943,2.099765927792155,-0.04276063524441723,0.6294639672405322,1.665050856415937,0.5412578094562502,0.33007806825343616,0.4895461772198434,-1.2709365459976532,-1.3883331277791262,-1.8639437386335598,1.5450777350491962,0.3609334813405105,0.13774099927949204,-0.39072535944035014,1.603246733252816,1.4878510442380823,-0.19661126817443353,0.25644285101682107,0.2435459392758465,0.670288331392158,-0.6457602260837154,-0.9616053003482943,-1.1775395147826873,-1.3079370936326622,1.1956806707195886,-1.6098034301282078,0.13440223882233074,-0.5468773725730617,-0.9534354350996788,-0.034977431629736884,0.6547236748873774,1.1389587197210356,0.012672745841817303,0.7077084265027105,0.6019701304595186,-0.7185078036556044,0.14304386741077157,0.0304446944846722,0.028349938291754005,0.9149222484017528,0.7772477565013793,1.0218289493351616,-0.11351145724109096,-0.5921976953954815,0.42847915180026847,0.49483903565939297,0.11654606881508206,-0.3895084235868541,0.3735224712373818,-0.9181494520470195
1.4865895579386093,-0.43238584544587705,-0.9108611544144876,-1.3789223799462274,-0.6761118360547129,-1.37071163375833,0.5071358468696998,-0.7512305319228111,-0.496309154850127,-0.25198723390675615,-0.8336105729834298,0.3663054523780888,-0.39169156885927164,-1.1667853070508425,0.6260466848217627,-0.2784331785019382,-2.0180829967038436,1.127877942936056,-0.21869551882586719,-0.8827342671812467,-3.2050398630340946,0.25261117827643303,1.459700120848709,0.35588414610144864,-0.08489217723605345,-1.1186991658448586,-1.3645262310296962,-0.061724970445662435,0.06416234153362907,-0.0960008506516665,-0.727186409593034,-0.7707097101482661,1.3225266474186856,-0.3196622157302195,0.7224151241272444,0.6650485832020154,-0.27659964535789333,-0.21989529797565183,-2.102068853712379,-0.03422988122624943,0.697556247568376,-0.38139702543592663,-0.7482683470149514,0.19832359492167717,-1.8414188945972156,-0.720982359909854,0.0888076176257238,-1.9321520898564004,-0.678845853198178,2.368441951842528,0.24548543951312973,0.519042283929397,-0.8747247316729451,1.3793628186068811,-0.43340395872217846,0.39751623920238094,-0.28982000997208646,1.701066118671319,-0.43076420517672426,-1.0224863548744756,1.274358873777977,0.1791512677905215,0.43931192487736226,-0.13575915229060764,-1.1384713108960278,-0.6965892544619559,0.7071659808128904,0.07434049572846914,-0.9243682481612164,0.20198794859271474,0.6074840093840538,-1.008532467981999,-0.3240515288717191,0.8242986487887555,0.15364421057698993,0.11711740518976232,1.2609965024002308,-0.631750247485949,-1.046627404961814,0.29533196356909325,0.5957723254510285,-1.3340543777565577,-0.18118615365559018,0.05132311360128235,-1.2765939604115955,0.09029960310978204,-1.4739635938327702,-0.6984881098790653,-1.4908290896107288,0.9586217501577362,0.7185561361524471,0.22939019545515654,-0.13463745680302586,-0.35591668814059674,0.9008182923574336,0.21390451313857786,-1.871415320003352,0.24428950459588783,0.7196830946500022,-2.183946063232227,1.3948678644391044,-0.17013243625184446,-1.123215407640918,-1.385401831009055,1.289176329922878,-0.7009170454276967,-0.3724665022109,-0.4495472583930233,-1.731549643755377,-0.1485284124582246,0.06771063651156818,-0.10504737267203086,1.2347422695043424,-1.4100634514797432,-0.34462936080512224,0.28676636091377133,0.472528679434159,0.7310070053471505,0.008055730439941903,0.3979024707425522,-0.49288364128547507,0.27640171928062496,-0.44823835983808485,2.5323120433339366,0.3652287667007708,0.9916699500326731,-0.6268585180335928,-0.31905767566311555,-0.4977777823276137,0.1354722381758986,0.8503914989021122,-0.5407044028631921,-1.6449932125394486,0.3567856567426807,-1.9877604557692565,0.49140764249738583,1.05695155573935,0.4306983924834498,-0.6713749554436874,-1.1645709911019948,-0.06522931888444282,-0.13992229997379857,0.629828393523952,-0.5170807816027565,-1.5064323948087517,-0.9093062281513224,-1.955228469390499,1.2281257716384415,-0.23338804567664578,1.79624135228169,-1.6379472719438568,-0.061170704333642106,-1.6268739098038527,-0.8786230808753634,0.7220081368291855,-1.1513658595880338,1.2190506052799064,-1.2623285699317264,0.12488652893735427,-0.810651353836898,0.10380567915299965,0.7284738307790959,0.5644418175383167,0.45435955005625134,1.0256994744452268,0.45998391351391604,-1.2507794318731846,0.4737711173166547,1.3048432900366895,2.8039349835809335,0.1883694916606725,-0.0549386707139614,-0.6659298175326358,-0.278580116354076,0.26236464014959043,0.9987839872185857,-1.0529980239966332,0.01720604512706662,-0.9344955247185334,0.011878685335299625,1.7455087202248527,-2.062115588491692,-0.04905740229991744,1.2063933162190725,-0.02923702427435635,-1.6306130615732661,0.3063404692214044,-0.05774598938531397,-0.7316106653988039,-0.713746184389445,-0.6180654133860812,-0.8736510656256954,0.5682247244312305,1.8399178749265677,-1.0184411025867752,-0.7019112913747875,-0.19012830925865437,0.46400021022747234,1.1425852630071858,0.08198303343039282,0.246475448894584,-1.0455201960391303,-0.2805536365406454,0.9779947679291816,-0.44021985779561956,1.452797087396781,0.0088921454132384,-0.05313309624704814,-1.7824173574847773,-0.043090556378353864,-0.04940973083759566,0.1662070451809624,-0.4479934426710071,0.5920136529081053,0.917704210073053,0.9265823434446178,0.2633385835089378,0.9749918916482475,-1.0355020625631195,1.31241670434885,-1.188400829108407,-0.49218291439707296,-0.8100630774103565,1.7229283531091235,1.3427933905813731,0.32314238906505677,0.22524245558813383,-0.03936279892280694,-1.8507922864836936,0.7252579948702107,2.3886876865106355,-1.0864701819844476,-1.466919646794821,-0.2707684152557877,-0.7782160821389317,-1.3743358121548876,-1.1721042758173312,-0.829680368998628,-0.33916293800403846,0.5710886491231527,1.5036488615349544,0.280893813618553,-0.8365451979153596,-1.1107049594449743,-1.843581353905377,-0.2866134210126475,0.2861963743862973,-0.13829944110590014,-0.3994319885847911,-0.0777320201651596,-2.0705098761604575,-0.7886868243834884,-0.3051360510328754,0.07476711195306765,1.0190292994216332,0.044011314214450356,-1.0504683800178898,-0.5351799340657737,0.501507997297272,0.16015112810389764,0.7348352597700442,-1.592968886568441,-0.5944204107137483,1.090997620206495,0.8846384903045668,0.05773951391321495,-0.08813606283978637,-0.300783719106313,-0.47240509569375727,0.6070227501196559,0.7916130761184595,0.08738031391616707,0.17281747273382214,0.1807704021735597,1.0073888976987053,-2.290103241526216,-1.0796874425477234,-0.17266483058726712,1.5662169131527606,-0.0023682793442828956,0.7231681196739067,1.632590009044898,-0.2058303925972141,-0.02070514993005522,-0.8076123995262617,0.6929840005588204,1.0566823841882627,-1.4459936697432014,-1.2081571572431518,-0.5263005282089072,0.14662343101215347,-0.09934697830960568,0.28655924696442714,-1.309912843001863,-0.0909405697763202,1.9551033877001867,1.81542330448111,0.15369283425404978,0.78960273638529,1.1067770203641136,-1.524112540909156,1.1168125994168452,-0.4769181231050865,-0.35093757586871793,0.12377328004341943,-0.17225749942705892,0.3729475596581219,1.5625332410505637,0.730545837367915,-0.9353912960138947,-0.234185029972128,-1.1889161561493482,0.35685262511766885,-0.15592585694259506,-0.8685033886051116,-1.2552992197877517,1.2847777545266197,0.7547238857604762,-0.9569490106822864,-0.7286922183633772,1.7185301740864956,1.1730857397522785,-1.4551453801769099,0.03958917321173935,1.8020444058842544,-1.280919985881093,-0.5998563558938839,0.6221752129552478,-1.5436533762277367,0.6673106900288601,-0.8334106197202797,1.0308102819903167,-0.8982402938914216,0.35585713987869033,0.6338453368473641,1.1832884420493717,1.4536930478052514,-1.3189805501611076,0.21491436159869476,-0.12973643657091138,-0.4798702845403384,0.015165148242678408,0.23483898919890336,-1.1212470889381352,0.13910548371008385,-0.23681151038213144,-0.4368362478978089,0.03156961069717697,0.657029392801722,1.8171821193918651,1.0375419504787393,0.4603404661393387,2.0818654214735726,1.0057645578199486,-0.17302687332025762,-0.04439007577033384,0.4617972312855308,0.49677582298455386,0.3726583043809889,2.4913801002278047,-0.5640587784781015,-0.06728306047299923,-0.891927136903983,-0.41813746503378885,1.0738350406801964,1.041679765549511,0.812576306083947,-0.9124319795121367,-0.948927031694251,0.5269097836136735,0.7279586668294123,0.7775490853936898,0.847624578993809,-1.1786265626270533,0.5683129919573354,2.2919255629116657,-0.7110600263273521,1.7377951992959,-0.13502426588238295,-1.7960380708638866,-0.24696001453652847,0.7112325960351649,-0.04931569822005747,0.49017757918195287,0.09885810265710139,-1.7345324001607791,1.2900346363859376,-1.03319043782852,3.116878615552812,0.1885895351746933,0.8567882212595646,-1.0216962816169466,1.0870034291499604,-0.42026840984321,1.504182732164824,-1.2514910034805564,1.1019601831872765,-0.035189424983684686,0.938318651811998,0.3149900733386117,-0.16096993965162407,0.8071385395536207,0.5011308723838723,-0.05084259879107275,-0.3214703994104234,0.8613526525065,-0.49988049084049807,-0.5828503499238009,-0.8477117599780717,1.2187861931428996,2.501149505917623,1.9219914940941638,-0.12780012877205957,-0.1455806642057029,0.47006677989903556,-1.6367687645066176,-0.5798394938169931,-0.6600317336364372,0.3139338454721422,0.6467406866442438,0.5340404331213905,0.31643724426007247,-1.4576799344478044,-0.2359019227121473,0.48578692367319887,0.8951522899306285,0.0443228122700921,1.0429630832057701,0.6974891296119821,-0.21170585060732805,0.5271223164477236,-2.060104801319215,-1.2253341579519448,-0.8795132776079245,-1.0511117770623322,1.2282341062668443,0.8351341185678905,-1.3610897593283466,0.39424193695743504,-0.35407658480788995,-0.45458449304946125,0.4882384454776923,-0.46104631921194283,1.2434627669496308,1.322181496990109,0.36210708327384816,-0.7340443684187701,0.15927395391531446,-0.35127803667815294,0.8176225968570816,0.6182223293990615,-0.1104405749282476,-0.3455674009077336,1.9109162622607523,0.47731949647087707,1.2279980559736394,-1.2806756660072351,-0.6989316749699459,-0.15964373129709372,0.3906776760127449,0.4405079779091558,-0.452748685893525,-0.34502126544136164,0.7674487120613702,-0.6341234640940274,-0.9360448952517108,-0.3544768145033796,0.20476932344703852,0.38160971475709626,0.39998316297217895,-2.1453046393066852,-0.372865917856678,0.1310264068090325,-0.44819516018513633,-0.7227958185839929,-0.2797224820094624,0.2727755893095633,-0.15958850428658275,1.3208318224166757,-0.8708638865223034,0.23003935387489263,1.095224741231891,1.4757463887981572,-1.100126032215924,-0.7590794318083502,-0.42337906798314207,-0.18469667811479618,-0.5671587978319599,0.5917154773380824,0.6479478536456073,0.9389380784254959,0.9829803609299677,0.9388745812304727,-0.43311891119169404,-2.810835608449091,-1.59428115594846,0.3707100820978324,-0.5043906817002983,0.2510295362198927,-0.9798632988440711,-1.3357828453988025,-0.8682160640343551,-0.021838803470020953,-0.05810306588654463,-1.010014005408475,0.42768902591427005,0.7702548812502764,0.5162075344481355,0.3211065371547501,-0.9069907266639136,1.134537713508258,1.244792967633395
-1.0593615981275788,0.08006692926664133,0.24006604756859046,-0.5335761427666681,1.983157738734499,-0.7515832468593401,-0.03098911099983399,-1.2217259789381107,1.650966818056476,-1.2091775566833685,0.276205838263512,0.3045324118820219,-1.6704806520952755,0.21142905080972954,-0.9185493970735308,-0.3285071882236092,0.8972473081555864,-1.765015995405647,1.3083520723705444,0.13840345725374043,-1.1356156159255721,-0.6416865666966791,0.31552039517572433,0.35669227976520307,0.4977595174261685,-1.4386962250838866,0.9814051497856882,-0.9158718467310669,0.6477605934378838,0.025525853081128275,0.0562244055480892,0.21114509636736076,1.0010702146975972,-0.5634239277468408,1.783170241129585,0.4821630777089174,-0.25823764449021863,-0.6479436112659406,0.2186238480468487,1.4983226155515843,-0.18018711430830542,0.6566777983582973,-0.6352278291684654,-0.050193379620877304,-0.5026485916637786,0.13794696358237798,-0.4455733907957062,0.3932738738794381,-0.4148662992991169,-0.2643434959765969,-1.224390677784641,0.30345429138538266,-1.2719982744876568,0.8771117487357561,-1.0653581041259526,0.08559134206059263,-0.9850794616989033,-0.2858743758316175,0.8960036150523979,-0.01296693806125379,-0.8440910379973189,-0.01787844122233801,-0.14556879631208547,-1.503218402346807,0.5379470351064589,-0.7599954264583524,-1.395895132923397,-1.618845489070859,0.2430771775521552,-0.03735839991439597,-0.4162188603066088,0.9291004562736015,-0.9976675283112642,0.7797077317778773,0.9917852624234649,0.35356275019974315,-0.024868908939751837,-0.4015876979079296,0.7910465923991667,0.8877061430090339,-0.3173949627270353,-1.6371801606006977,-0.5097718458445988,-0.013461860619797221,-0.6108758480944834,0.5920791963491157,0.01939421721853088,0.570326270927352,1.484937516889628,-0.19402553152094013,-0.9648580497787299,0.37240844388977673,-1.4932770259658275,-1.3508984990464343,-0.4399681114981578,-0.8609361490546943,-0.007289347529851455,0.4354478794791707,-0.00771925159619019,-1.5641966403673555,-1.242038433293049,0.4346901230575796,-0.7831846298497976,0.9597395923417896,0.5362142244493963,0.6513577594706736,1.1986656039039667,0.06217686030987142,-0.1333909403297521,0.4988973661878402,0.5416961692770544,2.8322553350198514,1.7243467252043154,0.21185851993528998,-0.9795087655352702,0.8140602892411238,0.772786182866616,0.5107468552139223,0.628658591896416,0.0069221091655704,-0.9166945597454946,0.30620526598226244,0.8041726782791359,0.6683433620209471,0.31979076269330037,0.006957862864007294,0.27910157791640194,1.1627074192255695,-0.06721032311180142,-0.9077925683013734,-0.23736927617133619,0.07280781354850081,0.40687123869147773,1.9595510707325539,0.05284393902657973,0.23100388848273715,-0.18933909832553592,-0.3845900695536975,0.34152125286815843,1.0703381954537705,0.06266179085677154,-0.029373334161770858,-0.9346409463997376,-0.6776532121299836,0.7441090781389085,0.9180244018887421,0.17015825764614867,-0.20895523904911048,0.09059820309455031,0.36680616445253483,0.21328020187543567,-0.5128018487715383,-0.258245247405234,-0.1252472463202093,-0.6776019495455979,-0.03951898435684431,1.5275784678883106,0.16868717839289563,-0.8265995406202877,1.6499871839995954,-0.31983661236572497,0.8314356180096695,0.0711838597631757,-0.24295228255679702,-0.17051178108842763,0.06953820105407814,0.24650595320127644,0.6992772461916141,-0.45797383854235685,-0.7358233116193684,-0.029629599336790515,-0.16828096214595972,-0.037024691849112716,0.6236246236681371,0.7137907450326277,-1.238582109898397,-1.2459461491424786,-1.081853640975527,0.28373356329651594,0.8408432791696318,1.3924512065648005,-0.47364164196271274,0.7553905449874412,0.7910368599182419,-0.23603788905799247,0.0751484334660878,0.507994512873875,1.2953438458678392,-0.7766610564282439,0.09664407966557705,-0.9515036623044778,0.7368820604769643,0.81553870648116,0.3131833033378928,0.615187768892561,1.3781236382795563,-0.18780847762495526,-0.11725020751717571,1.519113597972992,-0.6836231640161747,1.0403340626394915,-0.6343351317169642,-1.314983388889292,0.38510699894465694,-1.0525732334447244,-1.492264925210836,0.3251141038808383,1.0701323057090095,0.5848817198704371,-0.0946867894994728,-0.14674399244438477,-0.282130499193395,0.822417199348911,-0.893124287189949,0.15664621677294963,-0.32713356585822734,0.7054302127113711,0.1330767720710603,-0.6946087818960129,0.20752031668703838,-1.1201997771942602,-0.19072872094755447,0.8224385748204909,0.4388795819786298,1.2663062714863318,0.7807612610616508,0.35476906429824817,1.0859315535792662,0.3068231398250186,-0.7853265464445338,-0.18425266581357763,-0.6410481738749461,0.9116842703560519,-0.7674974426676107,0.1524689294523993,0.6761843007671386,-0.46722979702517414,-0.6682432159391747,0.13912827483454895,-0.8797793707571252,1.1917031204311865,0.24535237579552033,-0.17391159082405783,-0.24317671709006417,0.5385358903773516,-2.1900547991208197,0.8082370757117451,0.902134408988996,0.14574888923942406,0.19182595285876758,1.0170916090932942,-1.6015742931003398,0.0928777613997643,-0.19072052899653497,1.4026154529321133,0.23657505161680462,-0.8802865655024615,-1.1338942576388251,-0.10819758314457364,-1.6810743316655725,-1.1370020283391225,-1.0245968802332348,1.31623309981103,-1.92040111390117,1.6519716251500898,0.08323969881109104,-0.5857575226686436,0.6130266583148906,0.12984022182737887,0.4617204685049094,0.17865100326241404,0.3754106139199607,-0.20168183311498286,-1.0445094436315896,0.703126624399773,-0.19544052717394217,-0.2758238786390159,-0.26316370284405377,-0.7683143561958942,0.4404911783958454,-1.0591669599145022,0.8615479809229629,1.7063507238098812,-0.8100178047970428,0.47118409231319297,0.7769725177931235,1.9236803264331344,0.5508672765036774,-1.4504439576379717,-0.528955069693487,-1.1627942121145893,0.9442911235839817,0.8873381408295749,0.7667191923638758,0.47964786753978694,0.5515504125501276,0.8337156008859774,-0.798783563866294,-0.8711526633403888,0.36174017625340094,-0.4190144679350615,0.8121699177628017,0.8861126657758516,1.1458865494274713,0.20197850724722727,-0.8532553646276695,-0.17084138569989418,-0.2424440724797129,1.402718518101366,-0.46142413381028047,0.6800335881993768,-0.48926392641892874,1.9526653268920628,0.39163792252817703,1.0519134638597496,1.368017733185871,-0.5479164629504116,-1.3587602987282381,0.009763120642401165,0.776699167836728,0.02876421143852668,0.4427856226693716,-0.0208569843693003,-1.00740687985304,-0.6664709273078873,-0.3788315663601023,0.4479668784814937,0.28166234340573376,0.618258987267492,-1.063605030022631,-0.9341345836895435,0.2550855927403793,0.5705917698381013,0.48944046983048894,-0.7590145502907735,0.4511215567258534,-1.62796549999711,-0.28650096792639507,-0.1765138386486941,0.8171761861882856,-0.12402968804169041,0.4711785324185936,-0.15483071151178918,1.4031270618480598,0.11123465066208642,0.41475987829248556,0.10368184022432952,0.18037991991263477,-0.4578482521690016,0.32535224963691645,-1.8711016643696479,0.06118219001815222,-0.034015372418844454,-0.7055799380873169,0.7567333962291014,0.01417274876900899,2.258461164079686,-0.08752811317262445,-0.5909640823113129,0.1536341913137333,-0.9256855561245992,-0.20707902653867044,-0.35386453531488,2.6367428751420956,2.2395753426724534,0.27238033332860717,-0.1504022508383464,0.8852907970821804,-0.16165872182615917,-0.15413215522312873,-0.5587057371314937,-1.3520999824130762,-0.45044587593598673,0.6179824871455175,-0.45553086313787267,0.9664054608504002,-0.9355254140418863,0.26816899184528975,0.37676303541990186,-2.0876468962437262,0.5201224143109843,1.0220624166341792,0.0064106501592687964,0.008941875833768133,-1.4008832747548325,-0.5518632214815371,0.6495654369678142,0.5265991789579166,1.8898698196542516,-0.3353499985635008,1.4561738237833641,-1.3908090275596134,0.7064343696403943,1.0609659074289233,-0.7718156275237594,-0.19276006631461906,-0.5478612286596138,-0.5792535416704329,1.0806541520492716,-0.4405880127260346,-0.1628316429311053,-0.5060025285641913,-0.3929428916566598,-0.18729783055738233,0.0962330244374822,-0.032917871216885185,0.6497169100033708,-0.7807064979039888,1.0120201822047687,-0.288426118414225,0.05878341039396788,-0.24003461148191887,-0.7248275001429558,0.7399726367200525,1.1691907038930012,-0.020604680056824913,0.5128201980264426,1.0509986632161121,0.0653066951250547,0.6936122214580467,0.24965027739591583,0.9230289419914234,-0.42538162475649943,1.785832460020424,-1.1220347922664449,0.2745133474250278,0.9263547506543098,0.13417446705662026,-1.243012960404348,0.31879618532542187,-1.147147272576352,1.5980352968901674,1.1575840293608721,-0.5537966811593693,1.084393787960305,-0.3683362978621543,-0.763137895420796,0.3386433573490212,0.18951352520382542,-0.3424388151205426,1.12105557658183,-0.7810411137950806,0.8258559918572765,1.2863917648081804,0.9992195218495957,0.9340629291343497,-0.24336167995046273,-1.5643862920630744,0.051730969032468176,-1.0247519893114712,1.4883393999811068,0.3674227600619645,0.526243741457045,-0.7795397197877753,-1.2342819368572446,0.9654984989928646,-1.0465663208818174,0.16097623733392183,0.6097730717526925,-0.9452870108443311,0.6498200259212797,-0.9858757777588103,0.43898665411063725,0.0917036359748066,1.9423509868032016,0.09243146088346901,-0.5989437003960361,-0.6035636574921771,0.5814944644954628,-0.503991236837366,0.9707909511363136,1.6407585852420998,-0.46108655076070165,-1.8957346659813752,-1.1261307747792395,-1.5455376438819155,1.1925290628473153,0.6552541005464022,-0.4846112037846834,-1.2124279890987257,-0.6313686836648703,-0.37755155895227577,-0.1330308504367187,0.16678169085217706,1.725463694566346,-1.0222828694311232,0.18987961860298477,0.14299844545264392,0.12895506390916567,-0.34692238246156976,-0.8136783762169072,0.8691134194215989,-0.6035717875534676,0.0965906327869223,0.0021597549311538943,-0.10473495681329714,0.7884092501281245,-0.9562602015380834,-0.5838029688092267,-0.0032326554082731922,0.7399036273221999,-1.2976825568128496,-1.6854987943767046,-0.2512124780687519,-0.5817506303950295,-0.05292461693004073,-0.3272843597944859,0.9782138471441634,1.5430376094226668,-0.7629617508780118,1.5143456666703796,-0.2686700843336809
